tree
version=v4
num_class=1
num_tree_per_iteration=1
label_index=0
max_feature_idx=11
objective=lambdarank
feature_names=semantic_score rrf_score skill_score yoe_score tenure_score growth_score location_score notice_score behavioral_score trust_score title_score assessment_score
feature_infos=[0.69858766000000005:0.80646019999999996] [0.0010981351984401999:1] [0:0.61071428571428565] [0.080000000000000002:1] [0.22222222222222221:1] [0.5:1] [0.10000000000000001:1] [0.10000000000000001:1] [0.14099999999999999:0.95988888888888879] [0:1] [0:1] [0:0.92900000000000005]
tree_sizes=3498 3477 3478 3483 3472 3479 3477 3475 3468 3481 3475 3478 3490 3505 3495 3490 3495 3491 3483 3485 3505 3484 3488 3487 3503 3499 3500 3489 3511 3500 3490 3482 3481 3488 3489 3500 3484 3505 3489 3504 3498 3500 3495 3494 3490 3513 3505 3499 3501 3477 3491 3496 3492 3495 3506 3480 3490 3501 3487 3498 3519 3515 3498 3498 3501 3505 3495 3494 3502 3474 3496 3509 3500 3498 3504 3519 3489 3489 3489 3503 3486 3489 3487 3513 3494 3497 3510 3502 3502 3484 3482 3506 3495 3499 3495 3486 3506 3479 3505 3494

Tree=0
num_leaves=31
num_cat=0
split_feature=3 3 1 10 10 4 0 0 4 5 7 9 10 3 0 1 1 1 8 4 1 9 7 1 7 6 3 8 7 1
split_gain=6035.02 899.366 381.868 362.29 188.894 163.884 161.897 130.165 114.183 106.065 115.667 97.0683 82.1449 156.867 89.833 54.3681 53.0253 49.1631 51.8361 46.8347 41.2899 40.1066 40.0621 35.1668 42.4089 32.8399 31.2405 30.8424 27.4715 26.0961
threshold=0.85000000000000009 0.23999999999999999 0.0025508229065816005 1.0000000180025095e-35 1.0000000180025095e-35 0.82523148148148151 0.78096038000000012 0.76515600000000006 0.68425925925925946 0.65000000000000013 0.65000000000000013 0.92500000000000016 1.0000000180025095e-35 0.48999999999999999 0.76515600000000006 0.0021981426553697001 0.0012038309609403001 0.0016745020594830004 0.33605555555555561 0.60251322751322767 0.015545294683406452 0.92500000000000016 0.90000000000000013 0.0025972275636919505 0.65000000000000013 0.90000000000000013 0.48999999999999999 0.38005555555555554 0.65000000000000013 0.0018881983311217002
decision_type=2 2 2 2 2 2 2 2 2 2 2 2 2 2 2 2 2 2 2 2 2 2 2 2 2 2 2 2 2 2
left_child=1 3 5 6 8 29 9 15 11 -1 -11 -2 13 -4 -14 -5 -10 18 -7 -17 -15 -18 -12 24 -13 -8 -20 -23 -29 -3
right_child=4 2 12 7 -6 17 25 -9 16 10 22 23 14 20 -16 19 21 -19 26 -21 -22 27 -24 -25 -26 -27 -28 28 -30 -31
leaf_value=-0.088151402578125981 0.077112865814052411 -0.074395364025314659 -0.041398876433877997 -0.085104551009653626 0.098181207663951692 -0.05473657656814207 -0.029511453641551812 -0.073627375073733903 -0.017531466198149003 -0.081523675574862078 -0.03400312746015887 -0.036565757647167144 0.072066485917745934 0.019347497136975023 -0.011455573921103992 -0.0077048981395252975 0.086073302072483773 -0.031732696589024036 -0.047119536003176365 0.048032197246802071 0.075093616162345694 0.07969036870210662 0.031859215609363653 0.034700691107758246 0.029331065778458704 0.043414026461775904 0.041302317570434212 0.047886927393916014 0.071672456201195292 -0.044814065225226601
leaf_weight=1157.5857313792221 91.773639278486371 202.86428740620613 119.82432325091213 12.999310800805686 469.09333347342908 21.866714373230934 39.624838233925402 58.910828705411404 17.348102938383818 138.11774092493579 67.300525555852801 53.219128376804292 115.19503258028999 226.89765346376225 44.681022089906037 72.033027488272637 298.08647794835269 112.27098236232996 11.352445256896315 79.050548360217363 38.913265922106802 225.37235655169934 35.146231927908957 111.3230010792613 45.111827834043652 25.291099862195551 83.197768880054355 302.05579747399315 202.96288098115474 117.8773672664538
leaf_count=17143 1091 3222 1926 202 4786 364 598 966 277 2129 1111 868 1429 3511 746 1154 3272 1854 187 1113 455 2636 515 1666 670 308 1199 4219 2526 1895
internal_value=-3.01124e-05 -0.0463273 -0.0110432 -0.069241 0.0708553 -0.0404655 -0.0782895 -0.00987376 0.0613408 -0.0818734 -0.0516642 0.0342274 0.0185905 0.00609759 0.0487243 0.0130158 0.0691554 -0.00812562 0.0146407 0.0214581 0.0275084 0.0706177 -0.0114078 0.0154548 -0.00633391 -0.00109985 0.0306857 0.0643099 0.0574461 -0.0635238
internal_weight=4597.35 2781 1094.94 1686.06 1816.35 549.43 1463.07 222.994 1347.25 1398.15 240.564 301.428 545.511 385.635 159.876 164.083 1045.83 228.688 116.417 151.084 265.811 1028.48 102.447 209.654 98.331 64.9159 94.5502 730.391 505.019 320.742
internal_count=64038 42027 16788 25239 22011 8721 21804 3435 17225 20898 3755 4295 8067 5892 2175 2469 12930 3604 1750 2267 3966 12653 1626 3204 1538 906 1386 9381 6745 5117
is_linear=0
shrinkage=0.05


Tree=1
num_leaves=31
num_cat=0
split_feature=3 10 2 10 9 3 2 8 0 3 1 7 5 8 8 2 8 7 7 5 8 11 1 7 3 2 1 0 1 0
split_gain=14034.7 2844.48 1332.76 1053.12 747.714 627.237 575.713 361.113 224.377 220.574 198.395 187.516 175.436 201.811 172.428 166.286 156.06 147.185 141.078 130.111 129.788 127.835 119.392 105.96 105.467 94.489 96.0152 120.746 91.1156 85.2948
threshold=0.85000000000000009 1.0000000180025095e-35 0.14999999999999999 1.0000000180025095e-35 0.92500000000000016 0.48999999999999999 0.19642857142857142 0.37894444444444447 0.76464790000000005 0.23999999999999999 0.0025508229065816005 0.65000000000000013 0.65000000000000013 0.641166666666667 0.35777777777777781 0.37142857142857144 0.28705555555555556 0.65000000000000013 0.90000000000000013 0.65000000000000013 0.38005555555555554 0.5152500000000001 0.0016657589663050503 0.90000000000000013 0.23999999999999999 0.10714285714285711 0.0014119345810329001 0.72799423000000008 0.0025748458946484002 0.72975941500000008
decision_type=2 2 2 2 2 2 2 2 2 2 2 2 2 2 2 2 2 2 2 2 2 2 2 2 2 2 2 2 2 2
left_child=2 4 3 5 10 19 7 14 24 15 17 -7 13 25 16 -4 -6 20 22 -1 -2 -12 -14 -21 -5 26 27 -9 -28 -18
right_child=1 -3 9 8 6 11 -8 12 -10 -11 21 -13 18 -15 -16 -17 29 -19 -20 23 -22 -23 -24 -25 -26 -27 28 -29 -30 -31
leaf_value=-0.082710927791384323 0.049484953018366785 0.089555218501677303 -0.035914781028908119 -0.018470171261155324 0.056373659303880712 -0.05501204240529365 0.094006479990657421 -0.026449438037115632 -0.055492982264181361 0.042367388384097787 0.072435993782728927 -0.020466666260536202 0.055627089527224449 0.031684875296637237 0.066608561575293809 0.033997615963918031 -0.032430016870043175 0.058730192423509214 0.083754381476396356 -0.067743409954317782 0.001117256112976766 -0.067264135545738846 -0.0053928273829940872 -0.016591546494594153 0.016388293079559319 0.040150308779686505 -0.042101212537661852 0.054627179517185848 -0.014863396123904041 0.015607233445033165
leaf_weight=3027.8556291535497 228.19860040023923 2538.410816475749 255.54890351369977 447.39931792579591 215.06272239238024 970.50114115513861 201.37781991995871 95.90241334028542 247.91082374751568 347.50188057310879 801.66514735482633 659.95010314881802 107.65783667191863 228.78374494612217 253.2078967243433 127.48068393580616 112.39768990501761 427.46293812990189 77.094821384176612 586.64289430528879 353.62184378132224 16.717101722955704 313.87400877289474 122.3578972928226 421.34355144202709 65.243344698101282 528.89605103246868 88.116098515689373 731.94365016371012 519.56725468300283
leaf_count=19455 551 4786 1394 2156 649 5497 702 432 1618 1423 1977 3874 430 892 774 680 358 1042 277 3998 833 31 1266 642 1290 248 2033 322 2870 1538
internal_value=-7.53457e-05 0.0459447 -0.0505013 -0.0577147 0.0253176 -0.0669058 0.011906 0.00695255 -0.0135367 0.0135228 0.0512881 -0.0410293 -0.00457999 -0.0120772 0.0304059 -0.0126464 0.0195836 0.036454 0.0215653 -0.0781962 0.0200878 0.0695823 0.0101915 -0.0589157 -0.00156369 -0.0187072 -0.021365 0.0123736 -0.0262891 0.0070636
internal_weight=15119.7 7905.2 7214.49 6483.96 5366.79 5367.31 3539.13 3337.75 1116.65 730.531 1827.67 1630.45 2237.51 1738.89 1100.24 383.03 847.028 1009.28 498.627 3736.86 581.82 818.382 421.532 709.001 868.743 1510.1 1444.86 184.019 1260.84 631.965
internal_count=64038 22011 42027 38530 17225 33466 12791 12089 5064 3497 4434 9371 8770 6797 3319 2074 2545 2426 1973 24095 1384 2008 1696 4640 3446 5905 5657 754 4903 1896
is_linear=0
shrinkage=0.05


Tree=2
num_leaves=31
num_cat=0
split_feature=3 1 2 3 4 7 3 1 6 4 5 8 2 0 7 1 1 8 2 4 1 7 5 4 11 0 8 0 7 11
split_gain=10683.5 900.985 895.831 632.64 473.169 225.062 224.171 220.55 168.642 158.319 146.766 142.014 127.454 187.327 107.249 99.781 128.18 95.9475 95.5907 92.3447 91.3764 86.527 82.2777 76.9759 69.811 67.4571 65.1176 63.9059 57.4156 56.9956
threshold=0.85000000000000009 0.0025972275636919505 0.14999999999999999 0.23999999999999999 0.8231481481481483 0.65000000000000013 0.48999999999999999 0.0025278403526405504 0.90000000000000013 0.82523148148148151 0.65000000000000013 0.63316666666666688 0.14999999999999999 0.77813345000000012 0.65000000000000013 0.0017037872019265003 0.0012038309609403001 0.38005555555555554 0.37142857142857144 0.6795634920634922 0.0016292425293543502 0.30000000000000004 0.65000000000000013 0.60486111111111118 0.62250000000000016 0.72367306500000017 0.33100000000000002 0.76464790000000005 0.65000000000000013 0.53650000000000009
decision_type=2 2 2 2 2 2 2 2 2 2 2 2 2 2 2 2 2 2 2 2 2 2 2 2 2 2 2 2 2 2
left_child=2 4 3 11 5 25 8 9 28 -5 -7 14 13 19 -1 16 -6 -17 -10 -3 26 -15 -16 -9 -21 -2 -11 -25 -4 -14
right_child=1 12 6 7 15 10 -8 23 18 20 -12 -13 29 21 22 17 -18 -19 -20 24 -22 -23 -24 27 -26 -27 -28 -29 -30 -31
leaf_value=-0.076116763599819795 -0.065656203793687348 0.045235623902902006 -0.051093905150114999 -0.062706031188362196 -0.035192945934612009 0.0026596922588401216 0.049774632147446894 -0.057307697212680156 0.00048308967638250309 -0.061969184162977399 0.061076712717172479 -0.028426934943924728 0.085223817029141058 -0.022702403844310069 -0.063348857421242646 0.053097401678966365 0.062552898147761493 0.01159527160199878 0.078280857445629015 0.066443943920320506 -0.046407433479719276 0.03668853563836523 -0.030211811896684607 -0.0027980142819129862 -0.017594539358347008 -0.017462353716581325 0.0059482666216610714 -0.028475801193052503 -0.0068788722597534092 0.034141788169445346
leaf_weight=1885.6878403797746 85.747311253100634 744.50205573812127 183.0692410543561 686.97599205560982 35.605258710682392 333.13614939525723 221.33145329914987 104.05154774338007 109.04358713328838 42.150409441441298 158.75838392786682 236.39396837353706 615.70209590904415 89.114641884341836 999.67112018167973 230.24657653458416 578.22585354279727 352.41892581060529 61.89627868309617 2251.194348343648 277.16388769447803 196.6744286455214 230.52087423577905 661.10918857436627 24.98624574020505 473.84130625613034 216.89506322145462 382.49877030774951 122.58853267505765 59.920963730663061
leaf_count=13006 398 2566 1043 5049 203 1343 846 617 621 317 605 1562 1886 246 7016 807 2176 1486 270 7272 1976 640 1581 3595 75 2137 1273 2538 717 171
internal_value=-2.84179e-05 0.0466181 -0.0452876 -0.0518094 0.021311 -0.00315911 0.00819234 -0.032042 -0.0111184 -0.0468137 0.0215137 -0.0657896 0.0609045 0.056861 -0.0686243 0.0428154 0.0568832 0.0279953 0.0286532 0.0605216 -0.026453 0.0181693 -0.0571394 -0.0162981 0.0655214 -0.0248472 -0.00510288 -0.0122093 -0.0333608 0.0806934
internal_weight=12651.1 6230.07 6421.05 5723.12 2247.98 1051.48 697.929 2370.84 476.598 1223.19 491.895 3352.27 3982.09 3306.47 3115.88 1196.5 613.831 582.666 170.94 3020.68 536.209 285.789 1230.19 1147.66 2276.18 559.589 259.045 1043.61 305.658 675.623
internal_count=64038 22011 42027 38530 9155 4483 3497 15365 2651 8615 1948 23165 12856 10799 21603 4672 2379 2293 891 9913 3566 886 8597 6750 7347 2535 1590 6133 1760 2057
is_linear=0
shrinkage=0.05


Tree=3
num_leaves=31
num_cat=0
split_feature=3 3 1 2 2 4 2 1 7 4 4 1 5 5 6 7 0 8 9 1 9 11 1 8 0 11 8 8 7 6
split_gain=8099.95 799.914 542.044 432.113 330.692 266.371 161.412 153.087 147.825 122.752 117.296 113.194 96.8431 93.2781 83.9361 82.3457 72.3773 67.6521 66.4359 65.5698 64.2379 61.3022 60.9284 57.395 53.7802 53.5873 47.0456 48.4298 46.6754 46.093
threshold=0.85000000000000009 0.23999999999999999 0.0025508229065816005 0.14999999999999999 0.34821428571428575 0.8231481481481483 0.14999999999999999 0.0025508229065816005 0.65000000000000013 0.82523148148148151 0.6795634920634922 0.0024468022855895005 0.65000000000000013 0.65000000000000013 0.90000000000000013 0.65000000000000013 0.72192757500000015 0.64538888888888912 0.92500000000000016 0.0016745020594830004 0.92500000000000016 0.57150000000000023 0.0016831894558441002 0.38005555555555554 0.77813345000000012 0.52650000000000008 0.37894444444444447 0.46505555555555561 0.65000000000000013 0.90000000000000013
decision_type=2 2 2 2 2 2 2 2 2 2 2 2 2 2 2 2 2 2 2 2 2 2 2 2 2 2 2 2 2 2
left_child=1 4 5 7 11 8 10 9 20 -3 18 12 -1 -10 -6 16 -7 28 -4 -11 -2 -8 -18 -24 25 26 -12 -28 -13 -5
right_child=2 3 6 29 14 15 21 -9 13 19 24 17 -14 -15 -16 -17 22 -19 -20 -21 -22 -23 23 -25 -26 -27 27 -29 -30 -31
leaf_value=-0.075546339768585657 0.0080916281214447119 -0.056022781138687167 0.057127547194516272 0.019543174449733934 -0.014792019440760432 -0.020317599269561299 0.079927984551680764 -0.014436254955089031 0.0034540559099044289 -0.0057230732543355999 0.074696490486370545 -0.062178374379117211 -0.045076076373375171 0.052152092539635091 0.066685840606928601 0.053478388228838547 0.04934237937036199 -0.022641186302650253 0.021940559322566038 -0.042016344660456464 -0.033045501898950995 0.019838497101766665 0.041681500132320443 -0.0043929198792898106 0.026536724113835237 -0.0084432356514266525 0.039729627255236669 0.058695903369561597 -0.041801920618501395 0.05902286004111558
leaf_weight=1400.1789882350713 138.90307923033834 624.88757807947695 180.07965550851077 220.22517453879118 72.936929130926728 75.351102974265814 626.28496614098549 1010.5770049598068 266.27206541970372 264.85783032700419 325.58735883794725 801.00690701790154 320.44974533561617 155.90819695219398 55.784349715337157 465.46623240597546 260.63733037747443 185.46796947158873 525.91382781229913 234.75239086523652 299.56199025176466 45.529930774122477 119.44084962457418 155.70644180383533 163.84745562169701 31.556975249201059 445.37339417822659 1377.873657357879 432.94563791435212 111.29301375802606
leaf_count=10968 690 5104 630 952 482 382 1901 6667 1314 1749 1102 6186 2549 595 252 1906 1011 1410 2204 1845 1812 157 464 835 657 121 1582 4648 3392 471
internal_value=6.69756e-05 -0.0418086 0.0425055 -0.0203128 -0.0580293 0.0210566 0.0536692 -0.0285592 0.000320031 -0.0412515 0.0487826 -0.0612492 -0.0698716 0.0214379 0.0205183 0.0376336 0.0255655 -0.0507971 0.0309158 -0.0227762 -0.0200135 0.0758556 0.0320183 0.0156079 0.0541633 0.0562394 0.0571893 0.0540629 -0.0550291 0.0327968
internal_weight=11394.7 5735.36 5659.29 2466.59 3268.77 1937.25 3722.05 2135.07 860.645 1124.5 3050.23 3140.05 1720.63 422.18 128.721 1076.6 611.136 1419.42 705.993 499.61 438.465 671.815 535.785 275.147 2344.24 2180.39 2148.83 1823.25 1233.95 331.518
internal_count=64038 42027 22011 16788 25239 9009 13002 15365 4411 8698 10944 24505 13517 1909 734 4598 2692 10988 2834 3594 2502 2058 2310 1299 8110 7453 7332 6230 9578 1423
is_linear=0
shrinkage=0.05


Tree=4
num_leaves=31
num_cat=0
split_feature=3 10 10 3 2 2 9 4 2 0 7 4 7 5 8 7 1 6 8 5 7 4 8 2 5 8 7 5 8 8
split_gain=6486.72 1262.98 694.023 747.265 456.342 421.651 415.413 384.421 269.77 244.507 145.244 144.857 117.196 140.277 112.918 98.3493 81.7877 71.764 68.5804 62.5359 69.7924 61.4554 67.919 58.586 57.9315 56.9999 66.5089 47.1245 46.8863 51.7475
threshold=0.85000000000000009 1.0000000180025095e-35 1.0000000180025095e-35 0.48999999999999999 0.37142857142857144 0.19642857142857142 0.92500000000000016 0.6795634920634922 0.19642857142857142 0.76515600000000006 0.65000000000000013 0.60486111111111118 0.65000000000000013 0.65000000000000013 0.38005555555555554 0.65000000000000013 0.0021821732343089008 0.90000000000000013 0.75872222222222241 0.65000000000000013 0.90000000000000013 0.98472222222222228 0.35777777777777781 0.14999999999999999 0.65000000000000013 0.38005555555555554 0.30000000000000004 0.65000000000000013 0.53061111111111126 0.62538888888888911
decision_type=2 2 2 2 2 2 2 2 2 2 2 2 2 2 2 2 2 2 2 2 2 2 2 2 2 2 2 2 2 2
left_child=2 5 3 4 12 6 25 -8 15 11 14 -4 -1 -14 21 -5 -13 -6 23 -17 -21 22 -9 27 28 -2 -27 -16 -12 -30
right_child=1 -3 9 8 17 -7 7 10 -10 -11 24 16 13 -15 18 19 -18 -19 -20 20 -22 -23 -24 -25 -26 26 -28 -29 29 -31
leaf_value=-0.072914707722837244 0.062965868024738178 0.079458300149438013 -0.018130949437487838 -0.036240255386334901 -0.0049573597943397838 0.079797547315084441 -0.030499158821424757 0.0042959269171376361 0.045724619481241208 -0.04360426883676552 0.03461703871389285 -0.071792776114965179 -0.061503179854301863 -0.01964865947589077 -0.015746302389618643 -0.019685668241977618 0.040111757246909428 0.066669324664338073 0.082912545483310285 -0.0060500623157728056 0.06131923800208592 0.069945511547360603 0.063792390727460221 0.046782201641084854 0.055547262348987769 0.012781963026707198 0.04759579850103296 0.015065109194075006 -0.021132190699877998 0.03863372927922705
leaf_weight=1752.1202050819993 338.58792200312018 1434.8218004964292 178.3797616623342 698.24166297353804 77.602498698979616 314.81568512693048 508.02816850785166 188.70122275128961 156.47516205720603 204.87291526049376 420.77923518233001 17.013228692114353 942.99343173019588 254.14084252528846 581.46877235081047 340.9659730438143 405.39334906917065 63.655077779665589 22.492934560403228 109.94193257577717 59.114131059497595 78.966508159413934 64.317045107483864 49.944152943789959 233.87322707986459 190.40743307303637 490.82685172371566 157.76879447838292 92.665324855130166 59.455939911305904
leaf_count=15068 1373 4786 1416 5539 537 1004 2956 866 696 1712 1953 142 8238 2082 2988 2626 2448 259 103 865 399 317 273 173 962 796 1963 849 399 250
internal_value=5.60974e-05 0.0395005 -0.0391409 -0.0468636 -0.0604711 0.0243855 0.0193703 0.00824121 -0.0160486 0.00356489 0.0183319 0.0196499 -0.064676 -0.0526178 0.00687198 -0.0240485 0.0356046 0.0273199 -0.00317582 -0.00735746 0.0175071 0.031438 0.0194199 -0.00562948 0.0345771 0.0461988 0.0378652 -0.0091705 0.0260166 0.00222706
internal_weight=10488.8 5227.92 5260.91 4455.25 3090.51 3793.1 3478.28 2458.46 1364.74 805.659 1950.43 600.786 2949.25 1197.13 1143.66 1208.26 422.407 141.258 811.675 510.022 169.056 331.985 253.018 789.182 806.774 1019.82 681.234 739.238 572.9 152.121
internal_count=64038 22011 42027 36309 26184 17225 16221 12089 10125 5718 9133 4006 25388 10320 5569 9429 2590 796 4113 3890 1264 1456 1139 4010 3564 4132 2759 3837 2602 649
is_linear=0
shrinkage=0.05


Tree=5
num_leaves=31
num_cat=0
split_feature=3 10 10 2 3 2 4 0 8 6 4 5 7 7 3 4 11 2 1 5 0 7 8 1 2 4 8 1 8 1
split_gain=5334.3 1015.29 616.455 602.355 481.623 338.577 264.878 192.695 136.794 126.045 121.993 107.941 97.1832 94.5529 82.2854 80.9983 71.4463 74.7193 69.6827 68.3246 65.2752 62.5495 61.3232 58.5277 55.6704 50.9227 49.8406 49.1992 45.6125 45.2081
threshold=0.85000000000000009 1.0000000180025095e-35 1.0000000180025095e-35 0.19642857142857142 0.48999999999999999 0.19642857142857142 0.6795634920634922 0.76515600000000006 0.38005555555555554 0.90000000000000013 0.59623015873015883 0.65000000000000013 0.90000000000000013 0.90000000000000013 0.48999999999999999 0.82523148148148151 0.50350000000000017 0.064285714285714265 0.0024079121415181005 0.65000000000000013 0.72367306500000017 0.65000000000000013 0.73694444444444451 0.0014119345810329001 0.45714285714285713 0.99722222222222234 0.49972222222222223 0.0021229355040754006 0.36038888888888893 0.0012038309609403001
decision_type=2 2 2 2 2 2 2 2 2 2 2 2 2 2 2 2 2 2 2 2 2 2 2 2 2 2 2 2 2 2
left_child=2 5 3 4 11 6 21 10 20 14 -4 -1 16 -13 24 27 17 19 -12 22 -8 -2 -10 29 -5 28 -21 -6 -22 -17
right_child=1 -3 7 9 15 -7 8 -9 12 -11 18 13 -14 -15 -16 23 -18 -19 -20 26 25 -23 -24 -25 -26 -27 -28 -29 -30 -31
leaf_value=-0.067552357564252596 -0.023334238417598119 0.075116305338350092 -0.020024630745804527 -0.050247306693289542 -0.054118094565958855 0.07513022075230022 -0.00039566827102193841 -0.04115607957335346 0.0022964246618247036 0.053066300863056554 -0.044056548510166667 -0.051352688338856228 0.046107874606093918 0.0072830150146770941 0.027471042221346678 -0.069221376459505587 -0.072647286785983964 0.059379298283966722 0.036396413061625631 0.016818299056453476 0.03411135234814832 0.0082521230481833654 0.070956398548738447 -0.017987211056442749 0.023494604792072313 0.075878078308329114 0.056965956808359842 -0.024033309644053362 0.068902752240209711 0.036109303036017858
leaf_weight=2110.4816466765478 376.50212454423308 1296.8824786655605 158.90188122913241 103.07883811369538 247.23220600094646 286.68874685652554 77.269360169768333 182.80807684920728 953.53110805945471 140.10470958892256 28.80665060505271 422.42952632158995 258.12348637264222 82.118049386888742 101.37572071701288 11.515131935477255 24.05880331993103 86.123210642486811 409.67810400761664 226.56286529591307 444.75142711028457 268.51498599350452 33.668832471594214 497.5749247353524 34.047698339447379 132.94870369974524 117.34163508191705 301.76575188431889 119.52350163320079 88.323165614157915
leaf_count=19910 2406 4809 1342 809 2318 1029 417 1667 5150 761 251 4019 1200 652 460 77 111 352 2397 1192 2032 1527 153 4014 239 581 550 2445 534 595
internal_value=-0.00061156 0.0374677 -0.0370056 -0.0446885 -0.0507393 0.0231308 0.0183511 0.00376326 0.0257913 0.0154256 0.0175092 -0.0625855 0.017854 -0.0418094 -0.00668589 -0.0237175 0.0127939 0.0142444 0.031111 0.0113241 0.0432075 -0.0101851 0.0046381 -0.010977 -0.0319376 0.0480398 0.0305168 -0.0375815 0.0414808 0.0239607
internal_weight=9622.73 4702.49 4920.24 4140.05 3761.44 3405.61 3118.92 780.195 2473.9 378.607 597.387 2615.03 1699.41 504.548 238.502 1146.41 1441.29 1417.23 438.485 1331.1 774.493 645.017 987.2 597.413 137.127 697.224 343.905 548.998 564.275 99.8383
internal_count=63999 22043 41956 36299 34030 17234 16205 5657 12272 2269 3990 24581 8708 4671 1508 9449 7508 7397 2648 7045 3564 3933 5303 4686 1048 3147 1742 4763 2566 672
is_linear=0
shrinkage=0.05


Tree=6
num_leaves=31
num_cat=0
split_feature=3 3 1 1 2 4 2 2 0 4 1 1 9 7 7 8 5 5 1 1 1 11 7 4 1 9 4 6 7 0
split_gain=4350.86 537.427 363.272 264.178 228.334 159.649 123.739 104.926 94.8558 90.0023 81.2088 79.6659 78.0044 77.2366 69.3269 68.761 63.1081 51.2985 50.5544 49.8524 45.2864 39.8835 39.5553 38.5704 38.2231 36.2662 35.5322 33.6209 33.1383 30.9615
threshold=0.85000000000000009 0.23999999999999999 0.0025748458946484002 0.0025508229065816005 0.34821428571428575 0.78587962962962965 0.14999999999999999 0.14999999999999999 0.77813345000000012 0.82523148148148151 0.0012038309609403001 0.0017037872019265003 0.92500000000000016 0.65000000000000013 0.65000000000000013 0.38005555555555554 0.65000000000000013 0.65000000000000013 0.0014119345810329001 0.0024468022855895005 0.0024671126128095505 0.50625000000000009 0.65000000000000013 0.6741071428571429 0.0012038309609403001 0.92500000000000016 0.60937500000000011 0.90000000000000013 0.90000000000000013 0.72752972500000013
decision_type=2 2 2 2 2 2 2 2 2 2 2 2 2 2 2 2 2 2 2 2 2 2 2 2 2 2 2 2 2 2
left_child=1 4 5 9 14 13 26 8 12 -3 -7 -12 -4 29 19 -13 -15 20 24 -1 -16 -9 27 -14 -11 -17 -5 -6 -10 -2
right_child=2 3 7 6 22 10 -8 21 28 18 11 15 23 16 17 25 -18 -19 -20 -21 -22 -23 -24 -25 -26 -27 -28 -29 -30 -31
leaf_value=-0.0681480778652018 -0.053866838599721703 -0.048847246659581817 0.062083028491389483 -0.04223724902476985 -0.043049404417083138 -0.045865395933752273 0.032109190586435431 0.07090143798515143 -0.0029905846088345428 -0.062432588769193158 0.045785791150105073 0.040520245760503393 0.024037258691577482 -0.0035094084990532209 -0.05799208662830696 0.029183758908451481 0.044583028005949224 -0.01872959054258351 -0.027973262703532564 -0.049952386057219807 -0.033690753547305982 0.021958047214588834 0.051397507208013962 0.043248298365763466 0.022675696704091398 -0.01062979233833207 -0.0045920194404096793 0.031137381641144574 0.0551647206743218 -0.013892239233274192
leaf_weight=768.44250356778502 60.544502142816782 506.16824470367283 489.81324846856296 68.170597765594721 31.95858365111053 35.199454301968217 254.96679753344506 472.51591107621789 148.56547552719712 15.265865996479986 477.78746150806546 181.76475837850012 329.7503759264946 186.34875785000622 454.66497610509396 80.661708105355501 107.60180204547942 188.9361281208694 313.27526603639126 737.91212404333055 331.48222567886114 45.645010439679027 53.02770559489727 1258.1226559109055 97.126071959733963 196.62988026114181 778.53212897200137 29.24934427253902 29.332133353687823 242.26005604676902
leaf_count=7743 460 5115 2192 612 260 243 1369 1885 748 128 2493 865 1933 1152 4651 410 523 1722 2800 7142 3257 204 320 5819 692 1224 6010 135 135 1757
internal_value=-0.00052565 -0.0342497 0.0354244 -0.0150019 -0.0493288 0.0161951 0.00157253 0.0463003 0.0416393 -0.0345972 0.0286926 0.0314939 0.0446396 -0.0041619 -0.0525106 0.0166189 0.014095 -0.0421231 -0.0176523 -0.0592346 -0.0477453 0.06659 0.0197875 0.0392588 0.0111157 0.000951623 -0.00762295 -0.00759787 0.00659818 -0.021885
internal_weight=8971.72 4629.18 4342.54 2033.5 2595.67 1568.8 1101.67 2773.74 2255.58 931.835 972.043 936.844 2077.69 596.755 2481.44 459.056 293.951 975.083 425.667 1506.35 786.147 518.161 114.236 1587.87 112.392 277.292 846.703 61.2079 177.898 302.805
internal_count=63999 41956 22043 16726 25230 9127 7991 12916 10827 8735 5235 4992 9944 3892 24515 2499 1675 9630 3620 14885 7908 2089 715 7752 820 1634 6622 395 883 2217
is_linear=0
shrinkage=0.05


Tree=7
num_leaves=31
num_cat=0
split_feature=3 10 10 3 2 9 2 4 2 4 7 5 7 8 8 1 1 5 7 8 8 4 2 7 4 7 6 2 11 4
split_gain=3700.62 808.28 506.063 466.487 278.973 268.148 265.784 225.475 160.411 123.499 96.4095 81.2268 78.2619 77.9483 61.6703 68.9372 47.2051 46.8676 45.49 45.1161 48.8787 46.3617 41.8372 41.5452 36.3773 35.33 34.2737 34.1397 55.5936 32.638
threshold=0.85000000000000009 1.0000000180025095e-35 1.0000000180025095e-35 0.48999999999999999 0.37142857142857144 0.92500000000000016 0.19642857142857142 0.6795634920634922 0.19642857142857142 0.60486111111111118 0.65000000000000013 0.65000000000000013 0.65000000000000013 0.38005555555555554 0.73694444444444451 0.0016936951998414503 0.0012038309609403001 0.65000000000000013 0.90000000000000013 0.3590000000000001 0.28705555555555556 0.98472222222222228 0.064285714285714265 0.90000000000000013 0.69014550264550267 0.90000000000000013 0.90000000000000013 0.064285714285714265 0.50625000000000009 0.96412037037037035
decision_type=2 2 2 2 2 2 2 2 2 2 2 2 2 2 2 2 2 2 2 2 2 2 2 2 2 2 2 2 2 2
left_child=2 5 3 4 10 -2 7 -7 12 -4 -1 -12 29 19 15 16 -15 -14 -19 20 -9 -22 24 27 -11 -13 -6 -17 -29 -5
right_child=1 -3 9 8 26 6 -8 13 -10 22 11 25 17 14 -16 23 -18 18 -20 -21 21 -23 -24 -25 -26 -27 -28 28 -30 -31
leaf_value=-0.064504202683887721 0.043972543034783984 0.070766320661606819 -0.027567617360215891 -0.039248014239781255 -0.0023633191073177966 -0.028359655332207603 0.069574170693983556 0.053274513405541429 0.038489681161011008 0.041742037458615461 -0.051798763059273605 -0.032413311714955761 -0.016167403015230994 -0.051539390028586665 0.06604798173436538 -0.010960014429024851 0.032373182208763764 -0.0030583430723075643 0.054289987805625599 0.057312793756857695 0.00057368703658317532 0.05155119707028516 0.047507217385431594 0.02395095080430612 0.0043842312410426422 0.0091691762629594799 0.051306826764986692 0.047792104951047951 -0.084742246773881244 -0.011935101491153316
leaf_weight=1393.8283984577283 856.36936485487968 1073.262601912953 197.6660829577595 441.774174769409 65.192261669784784 390.27952215541154 177.49949400499463 92.916287483647466 129.67711549717933 81.317821050994098 764.9131975537166 141.63985876552761 294.63246604055166 17.983411569148302 42.2506069149822 630.8888457226567 246.37102706637233 92.714790598489344 55.14691748470068 120.47497096378356 213.42821011319757 56.383404830936342 102.63147666677833 123.94377249665558 328.03391075786203 79.895028259605169 54.709959456697106 52.740799057297409 9.3089706897735578 145.36895808950067
leaf_count=15045 4415 4809 1935 4229 519 2947 733 481 660 600 8266 1417 2661 141 211 3876 1454 854 413 591 1170 290 611 636 2511 684 259 242 47 1292
internal_value=-0.000615279 0.0334782 -0.0326406 -0.0401341 -0.0522902 0.020274 0.0109408 0.00572917 -0.0139182 0.0060017 -0.0560388 -0.0440773 -0.0205187 0.0140097 0.00678715 0.00447146 0.0266648 -0.00463977 0.0183305 0.0308026 0.0219976 0.0112266 0.0189621 -0.00271061 0.0118054 -0.0174169 0.0221257 -0.00747948 0.0279087 -0.0324857
internal_weight=8473.24 4104.1 4369.14 3659.49 2500.18 3030.84 2174.47 1996.97 1159.31 709.649 2380.28 986.448 1029.64 1606.69 1123.49 1081.24 264.354 442.494 147.862 483.203 362.728 269.812 511.983 816.882 409.352 221.535 119.902 692.939 62.0498 587.143
internal_count=63999 22043 41956 36299 26190 17234 12819 12086 10109 5657 25412 10367 9449 9139 6607 6396 1595 3928 1267 2532 1941 1460 3722 4801 3111 2101 778 4165 289 5521
is_linear=0
shrinkage=0.05


Tree=8
num_leaves=31
num_cat=0
split_feature=3 10 10 3 2 2 9 4 0 2 5 4 7 7 1 5 5 11 1 1 2 7 0 7 7 1 6 4 0 7
split_gain=3179.77 689.809 428.928 412.593 256.385 222.936 203.246 175.221 171.176 128.425 89.5846 79.5588 64.3825 64.1126 59.1954 57.9986 42.0466 41.9002 43.3272 40.6506 47.4743 40.4151 39.1974 38.3902 32.9049 31.671 30.8862 30.8365 29.5903 29.1475
threshold=0.85000000000000009 1.0000000180025095e-35 1.0000000180025095e-35 0.48999999999999999 0.34821428571428575 0.19642857142857142 0.92500000000000016 0.6795634920634922 0.76414530000000014 0.23928571428571427 0.65000000000000013 0.59623015873015883 0.65000000000000013 0.90000000000000013 0.0021821732343089008 0.65000000000000013 0.65000000000000013 0.52650000000000008 0.0012038309609403001 0.0014119345810329001 0.064285714285714265 0.90000000000000013 0.72578390000000015 0.90000000000000013 0.65000000000000013 0.0013880109856802502 0.90000000000000013 0.96203703703703713 0.72367306500000017 0.90000000000000013
decision_type=2 2 2 2 2 2 2 2 2 2 2 2 2 2 2 2 2 2 2 2 2 2 2 2 2 2 2 2 2 2
left_child=2 5 3 4 10 6 22 29 11 12 24 -4 -5 -12 -13 17 25 18 -9 -20 28 27 -2 -18 -1 -14 -6 -17 -21 -8
right_child=1 -3 8 9 26 -7 7 15 -10 -11 13 14 16 -15 -16 21 23 -19 19 20 -22 -23 -24 -25 -26 -27 -28 -29 -30 -31
leaf_value=-0.064673046391833369 0.0033355385388351478 0.068270387212478967 -0.013491481317030901 -0.029993234638050804 -0.002667486222150111 0.067366303332162689 -0.030445718893981295 -0.056290675065893428 -0.035372822529021027 0.037822336738839703 -0.042676905360977818 -0.067212030766203301 0.025819751225557047 0.0073367236106421391 0.036532152412375916 0.01507333574393014 -0.0027487024601983573 -0.076512351362350309 0.038154070901790481 -0.031653545510551669 0.048460951485159477 0.069301876162847623 0.041591478346790348 0.04946296141433898 -0.05078351548076207 -0.022227511226783552 0.047750864014416597 0.049496420464059381 0.0067977748872411429 0.01008613480975777
leaf_weight=1053.7695504361764 74.440418796613812 986.88809306919575 126.5891963802278 559.01439590658993 66.641696574166417 225.9255483020097 307.33772630430758 24.442181644961238 188.13003910891712 111.52159915026277 368.64995460864156 14.308319028466938 39.826131669804454 77.558726914227009 352.3277898915112 248.10028033843264 92.30521528609097 14.333474673330782 122.3905973508954 53.246897965669632 65.93533652368933 57.975891585461795 666.10895149409771 56.914889363572001 716.23302784049883 247.07421407848597 55.817957742139697 88.182493136264384 829.25219149561599 51.836838096380234
leaf_count=12278 448 4809 1275 5557 543 1029 2563 201 1897 595 4152 153 307 684 2332 1468 861 89 761 350 338 325 3671 415 8250 2374 283 506 5101 384
internal_value=-0.000619842 0.0322765 -0.0310427 -0.0382113 -0.0501137 0.0197223 0.015588 0.00678035 0.00520585 -0.013058 -0.0540053 0.0206837 -0.01876 -0.0339837 0.0324834 0.0142741 -0.00436137 0.00842109 0.00953259 0.011035 0.00753548 0.030747 0.037746 0.0171656 -0.0590526 -0.0155578 0.0203135 0.0241 0.00447776 -0.0245961
internal_weight=7943.08 3816.4 4126.68 3445.33 2338.67 2829.51 2603.58 1863.03 681.355 1106.66 2216.21 493.225 995.135 446.209 366.636 1503.86 436.12 1109.6 1095.27 1070.83 948.434 394.259 740.549 149.22 1770 286.9 122.46 336.283 882.499 359.175
internal_count=63999 22043 41956 36299 26190 17234 16205 12086 5657 10109 25364 3760 9514 4836 2485 9139 3957 6840 6751 6550 5789 2299 4119 1276 20528 2681 826 1974 5451 2947
is_linear=0
shrinkage=0.05


Tree=9
num_leaves=31
num_cat=0
split_feature=3 10 10 3 2 2 9 4 2 4 5 8 7 7 8 7 7 7 8 8 1 5 4 8 7 1 5 7 4 3
split_gain=2682.17 604.148 389.67 366.729 224.405 194.24 163.682 133.538 106.151 93.7361 79.1631 68.6108 57.3881 53.2728 56.1242 51.4418 42.2495 34.7038 34.6266 39.3317 34.6235 33.2347 31.8272 30.7991 30.1968 27.8327 27.2137 27.2058 26.2113 26.8753
threshold=0.85000000000000009 1.0000000180025095e-35 1.0000000180025095e-35 0.48999999999999999 0.28214285714285714 0.19642857142857142 0.92500000000000016 0.6795634920634922 0.19642857142857142 0.60251322751322767 0.65000000000000013 0.38005555555555554 0.90000000000000013 0.65000000000000013 0.641166666666667 0.65000000000000013 0.65000000000000013 0.65000000000000013 0.35777777777777781 0.28705555555555556 0.0021821732343089008 0.65000000000000013 0.98981481481481493 0.38005555555555554 0.90000000000000013 0.0013880109856802502 0.65000000000000013 0.65000000000000013 0.69014550264550267 0.23999999999999999
decision_type=2 2 2 2 2 2 2 2 2 2 2 2 2 2 2 2 2 2 2 2 2 2 2 2 2 2 2 2 2 2
left_child=2 5 3 4 10 6 17 -8 15 -4 27 18 -12 14 -13 -5 -6 23 19 -9 -11 25 -21 -2 -23 -17 -15 -1 -22 -30
right_child=1 -3 9 8 16 -7 7 11 -10 20 12 13 -14 26 -16 21 -18 -19 -20 22 28 24 -24 -25 -26 -27 -28 -29 29 -31
leaf_value=-0.062639074455603364 0.045773481816536593 0.065910569838602065 -0.025060223578344167 -0.028096739989375032 -0.01371022177913154 0.065185903766171213 -0.021759679402530069 0.050749344697572377 0.03264978586714392 -0.063832238567237173 -0.041428208546946482 -0.0092392930505440281 0.0072373799364175793 0.01268195060618213 0.032809803256314794 0.023667499072790341 0.0398368247758445 0.047957629882924811 0.054259528966789476 0.0018691864747815631 0.042819053843584455 -0.0033011802015899721 0.049854988179777432 0.016249196904360774 0.043911182982252238 -0.021588687488775668 0.042435379681983867 -0.049515303452332002 -0.0052973976856795727 0.022950392021779502
leaf_weight=961.81284759752452 129.22363337315619 906.56233516149223 180.87842212617397 525.59197185002267 78.263191813603044 207.37769080325961 334.88571834005415 84.849099039100111 117.66582475602627 12.856624085456131 341.89682554546744 525.65320803551003 73.623227011412382 285.67281494755298 93.465559369884431 39.915274176746607 69.595106711611152 301.48581413878128 110.63944294140674 184.59932478237897 94.877309928648174 87.263788586482406 42.513145051896572 279.14384431671351 55.349858986679465 228.22053838893771 105.13543969206512 669.97310762200505 127.12170811183751 249.39641019050032
leaf_count=12143 789 4809 1934 5521 625 1029 2947 481 660 152 4096 3622 667 1835 529 307 503 1687 624 1161 706 854 266 1643 413 2354 621 8156 1198 1667
internal_value=-0.000586022 0.0306194 -0.0292157 -0.0363534 -0.0479932 0.0187021 0.0148109 0.00666572 -0.0121114 0.00565207 -0.0522894 0.0133108 -0.0328055 0.0062324 -0.00289133 -0.0177364 0.0114937 0.0350909 0.0302267 0.0217032 0.0171238 -0.00447933 0.0108516 0.0255918 0.0150224 -0.0148518 0.0206862 -0.0572508 0.0193317 0.0134132
internal_weight=7505.51 3591.21 3914.3 3249.17 2195.16 2684.64 2477.27 1767.41 1054.01 665.13 2047.31 1432.53 415.52 1009.93 619.119 936.341 147.858 709.853 422.601 311.962 484.252 410.749 227.112 408.367 142.614 268.136 390.808 1631.79 471.395 376.518
internal_count=63999 22043 41956 36299 26190 17234 16205 12086 10109 5657 25062 9139 4763 6607 4151 9449 1128 4119 2532 1908 3723 3928 1427 2432 1267 2661 2456 20299 3571 2865
is_linear=0
shrinkage=0.05


Tree=10
num_leaves=31
num_cat=0
split_feature=3 3 1 1 2 4 4 7 2 2 5 6 0 8 1 8 7 5 11 1 1 8 9 4 8 11 8 8 7 4
split_gain=2446.37 335.23 226.668 178.813 133.172 120.274 75.5132 66.927 61.1037 59.7642 56.3595 53.8116 51.7499 49.5107 46.0358 51.0423 42.7462 42.6905 40.5151 36.2919 50.4555 38.071 32.995 27.5769 26.8094 25.5563 24.2697 24.5981 23.1233 22.4211
threshold=0.85000000000000009 0.23999999999999999 0.0025748458946484002 0.0024671126128095505 0.23928571428571427 0.8231481481481483 0.82523148148148151 0.65000000000000013 0.37142857142857144 0.14999999999999999 0.65000000000000013 0.90000000000000013 0.77813345000000012 0.64538888888888912 0.0016657589663050503 0.33766666666666673 0.65000000000000013 0.65000000000000013 0.52550000000000019 0.0017037872019265003 0.0012038309609403001 0.38005555555555554 0.92500000000000016 0.60937500000000011 0.29305555555555557 0.52650000000000008 0.74727777777777804 0.38005555555555554 0.65000000000000013 0.64087301587301593
decision_type=2 2 2 2 2 2 2 2 2 2 2 2 2 2 2 2 2 2 2 2 2 2 2 2 2 2 2 2 2 2
left_child=1 4 5 6 13 7 -3 24 23 12 -9 -6 18 16 15 -8 -1 -18 22 20 -7 -21 -4 -5 -2 -11 27 -24 -22 -19
right_child=2 3 9 8 11 19 14 10 -10 25 -12 -13 -14 -15 -16 -17 17 29 -20 21 28 -23 26 -25 -26 -27 -28 -29 -30 -31
leaf_value=-0.05407381535265008 0.026080658657995671 -0.044895477462296204 0.053617588953614292 -0.032016840021545812 -0.021698389986480889 -0.031560578105460153 -0.051243366768009814 -0.0008459595103917823 0.046002076716437038 0.062788260469687759 0.046820282078438309 0.039847835300420083 0.0078408981157580687 -0.016107922312970292 -0.03220678146569874 0.017651791655453355 -0.04446543153840677 0.01612158566440608 -0.023125623791569995 0.037350124249814619 0.032303688747775505 0.0024812349343589757 0.05240839900908633 0.0015910910338280235 -0.023871515988616712 0.015112839993732273 0.067029026773121586 0.031591182544629906 0.058208651741119825 -0.026705480185639625
leaf_weight=1041.9534867368639 29.781254658475518 397.79472360014915 363.06464275252074 66.090844532474875 84.248660366982222 24.006675766780972 33.042075047269464 187.62246998492628 75.234372739680111 342.54443572927266 92.629367837682366 61.397146170726046 141.5910875396803 134.40008814912289 159.57933718618006 144.24860617145896 574.16645441111177 42.7184056378901 25.483251489698887 127.09246141370386 201.90588974254206 203.82566914567724 166.80616760533303 798.42863929504529 273.90902926912531 30.622084492817521 61.229231046512723 950.55419794330373 150.24667570879683 107.37737774197012
leaf_count=13608 213 4915 2111 721 827 205 357 1339 463 1860 591 422 892 1543 1772 1356 7214 436 155 779 1259 1466 1041 7222 2320 184 375 6240 919 1189
internal_value=-0.000298293 -0.0282552 0.0305411 -0.011664 -0.0418315 0.0140813 -0.0301439 -0.00271208 0.00278295 0.0407482 0.0149088 0.00424649 0.0367893 -0.0453625 -0.0127244 0.00481164 -0.0475887 -0.0382588 0.0394047 0.0279502 0.0385749 0.015873 0.0404384 -0.00097817 -0.018973 0.058876 0.0363785 0.0346989 0.0433561 -0.0145166
internal_weight=7093.59 3720.68 3372.91 1674.42 2046.26 1291.02 734.665 583.942 939.754 2081.9 280.252 145.646 1708.73 1900.62 336.87 177.291 1766.22 724.262 1567.14 707.077 376.159 330.918 1541.65 864.519 303.69 373.167 1178.59 1117.36 352.153 150.096
internal_count=63994 42045 21949 16806 25239 9091 8400 4463 8406 12858 1930 1249 10814 23990 3485 1713 22447 8839 9922 4628 2383 2245 9767 7943 2533 2044 7656 7281 2178 1625
is_linear=0
shrinkage=0.05


Tree=11
num_leaves=31
num_cat=0
split_feature=3 10 10 3 2 0 2 8 2 7 5 4 5 4 7 4 7 8 8 8 1 1 5 7 7 6 4 3 10 6
split_gain=2093.75 497.991 325.652 320.228 162.764 152.699 149.47 99.3828 83.2653 71.0641 69.3009 55.0367 51.6663 48.4364 48.2069 43.6367 43.3124 38.8509 41.439 38.7867 34.5968 30.1197 29.36 34.3768 28.239 27.8895 29.3651 26.0352 25.2742 31.4166
threshold=0.85000000000000009 1.0000000180025095e-35 1.0000000180025095e-35 0.48999999999999999 0.37142857142857144 0.76515600000000006 0.19642857142857142 0.38005555555555554 0.19642857142857142 0.65000000000000013 0.65000000000000013 0.60486111111111118 0.65000000000000013 0.69014550264550267 0.65000000000000013 0.98472222222222228 0.30000000000000004 0.3590000000000001 0.28705555555555556 0.75872222222222241 0.0021821732343089008 0.0024079121415181005 0.65000000000000013 0.90000000000000013 0.65000000000000013 0.90000000000000013 0.89513888888888904 0.48999999999999999 0.80000000000000016 0.6000000000000002
decision_type=2 2 2 2 2 2 2 2 2 2 2 2 2 2 2 2 2 2 2 2 2 2 2 2 2 2 2 2 2 2
left_child=2 6 3 4 10 11 7 15 16 13 24 -4 -11 -9 -12 17 -5 18 -2 -15 -13 -20 -18 -24 -1 26 -10 -7 29 -22
right_child=1 -3 5 8 -6 27 -8 9 25 12 14 20 -14 19 -16 -17 22 -19 21 -21 28 -23 23 -25 -26 -27 -28 -29 -30 -31
leaf_value=-0.059494188225541644 0.042669412658194086 0.063697793680398726 -0.0091128965281144624 -0.033340964859289467 0.015330521970002071 -0.049382190627460874 0.062584880148716257 -0.021893188195441223 0.039439219624796407 0.011892713898513324 -0.046767703984842438 -0.057131617278099192 0.044097292186940897 0.0030090525055775368 -0.011262980339359014 0.058541916563875862 -0.016021929746389912 0.048907999425158694 -0.0033403348374411398 0.070025330672107422 0.054108969130442601 0.028576791948420801 -0.0046533025062818027 0.042800933384122657 -0.045465966951906314 0.072336876751049647 -0.023904948556176444 0.0017497666971413358 0.080917485465181349 0.019030537246320721
leaf_weight=863.03523452579975 120.08603376243263 778.46723215747625 122.38442326150835 241.28541692625731 104.678448646795 115.93136343546212 173.0668405815959 215.76698302105069 48.41275239456445 464.27361523057334 200.04584965482354 11.091772364452479 170.19557117996737 721.49059309996665 183.11893697362393 114.2810186301358 413.35370844975114 128.14898474561051 204.01333058718592 22.256512564606965 88.396038654725999 115.91401400510222 153.42455236846581 50.800794667098671 613.9453452648595 29.866828671656549 29.411091089248657 31.703264337033033 25.076447414234281 229.6692671906203
leaf_count=12343 797 4797 1408 2757 793 1361 998 1939 305 3213 2739 152 1117 5045 2099 724 4586 879 1517 136 602 787 1694 394 8216 209 172 327 155 1733
internal_value=-0.000292667 0.0288613 -0.0267599 -0.0337428 -0.0453336 0.0060303 0.01779 0.0143844 -0.0101808 0.00754859 -0.0487475 0.0197934 0.0205316 -0.00103626 -0.0297996 0.0303508 -0.0153773 0.0246804 0.0176244 0.0050145 0.0297803 0.00822367 -0.00835898 0.00715088 -0.053663 0.0312633 0.0155003 -0.038402 0.0325897 0.0287795
internal_weight=6783.59 3227.96 3555.63 2931.38 1964.82 624.253 2449.49 2276.43 966.555 1593.98 1860.15 476.618 634.469 959.514 383.165 682.443 858.864 568.162 440.013 743.747 354.234 319.927 617.579 204.225 1476.98 107.691 77.8238 147.635 343.142 318.065
internal_count=63994 21949 42045 36307 26190 5738 17152 16154 10117 11450 25397 4050 4330 7120 4838 4704 9431 3980 3101 5181 2642 2304 6674 2088 20559 686 477 1688 2490 2335
is_linear=0
shrinkage=0.05


Tree=12
num_leaves=31
num_cat=0
split_feature=3 10 10 3 9 0 4 7 0 0 8 5 4 4 8 1 5 8 1 0 0 7 1 11 1 8 7 1 10 4
split_gain=1834.89 437.806 278.569 283.055 128.416 128.345 96.5656 77.5012 69.141 63.8409 54.4914 53.5282 49.4247 45.6383 42.7957 45.0721 34.2674 35.6861 33.9559 33.0822 32.9001 29.1951 29.0433 28.5477 28.5263 26.5645 28.8957 22.3436 22.2185 18.6452
threshold=0.85000000000000009 1.0000000180025095e-35 1.0000000180025095e-35 0.48999999999999999 0.92500000000000016 0.76515600000000006 0.71412037037037057 0.65000000000000013 0.77854269500000017 0.75880003500000015 0.37894444444444447 0.65000000000000013 0.82523148148148151 0.60486111111111118 0.33605555555555561 0.0015760153670442002 0.65000000000000013 0.75872222222222241 0.017925578671825503 0.72842190000000018 0.73063200000000006 0.90000000000000013 0.0020208565641757505 0.50350000000000017 0.0021821732343089008 0.49822222222222229 0.90000000000000013 0.0019195974745412003 0.80000000000000016 0.69014550264550267
decision_type=2 2 2 2 2 2 2 2 2 2 2 2 2 2 2 2 2 2 2 2 2 2 2 2 2 2 2 2 2 2
left_child=2 4 3 7 20 13 18 -1 11 12 19 -9 27 -4 -14 -16 17 23 21 -8 -2 -6 -3 -12 -15 26 -18 -5 29 -26
right_child=1 22 5 9 6 -7 10 8 -10 -11 16 -13 14 24 15 -17 25 -19 -20 -21 -22 -23 -24 -25 28 -27 -28 -29 -30 -31
leaf_value=-0.052502051839772905 0.012499668723987447 -0.018439076294856926 -0.0081457415224618981 -0.049119118891950975 -0.019118408308759022 -0.037043451739958842 -0.0027541552000759023 -0.043458853047278513 0.017788499494000461 0.0084195357517798698 0.0044186265694871512 -0.011396921952191861 -0.044871328658351778 -0.053825396821210951 0.027699328204980968 -0.013930544781810673 0.00504556947757969 0.069583042876301543 0.031762371474518304 0.040507495804084186 0.0411516627683624 0.017542423346249079 0.063080163766127781 -0.073454788065830431 0.051443830549080874 0.05309883358601386 0.069859154818280381 -0.02092472429221981 0.076902649563909131 0.020440806992228958
leaf_weight=1051.7000001869164 122.93140375893563 11.097076950594781 119.87493170890957 136.74349278863519 363.48144135531038 136.12375427037477 51.9260961310938 576.24558561900631 64.394850354641676 317.32213100604713 621.71498852688819 168.17124426085502 58.819923253729939 10.365286804735659 105.84448812901974 168.56637821905315 109.95386352436617 20.748165692202747 45.570425191894174 296.63233365677297 541.61090922472067 63.844186595641077 709.14556697523221 11.995872776955364 60.868066471070051 71.553184991236776 20.384668052196503 144.55156491231173 23.834548013284802 238.56911963131279
leaf_count=15533 835 65 1408 1832 3321 1688 393 8074 588 2957 4544 1995 709 152 957 1934 789 133 341 1978 3578 520 4732 84 439 498 138 1728 155 1896
internal_value=-0.00030412 0.0277321 -0.0256925 -0.0322867 0.0172493 0.00553544 0.00988134 -0.0435528 -0.0319161 -0.00979285 0.0173961 -0.0362157 -0.0191972 0.0183157 -0.00616908 0.00212674 0.0106124 0.00505714 -0.00926584 0.0340626 0.0358514 -0.0136411 0.0618242 0.00294452 0.0278232 0.0286204 0.0151823 -0.0346306 0.0304412 0.0267429
internal_weight=6444.59 3062.59 3382 2792.36 2342.35 589.636 1677.81 1860.51 808.812 931.848 1204.91 744.417 614.526 453.512 333.231 274.411 856.351 654.459 472.896 348.558 664.542 427.326 720.243 633.711 333.637 201.892 130.339 281.295 323.272 299.437
internal_count=63994 21949 42045 36307 17152 5738 12739 26190 10657 10117 8557 10069 7160 4050 3600 2891 6186 4761 4182 2371 4413 3841 4797 4628 2642 1425 927 3560 2490 2335
is_linear=0
shrinkage=0.05


Tree=13
num_leaves=31
num_cat=0
split_feature=10 2 5 4 4 7 1 4 1 1 6 1 8 7 7 11 4 1 0 4 9 8 8 4 4 4 5 2 1 4
split_gain=791.524 274.35 202.213 157.326 135.774 113.844 94.1063 70.6134 62.3446 70.7269 48.4419 43.5154 40.9593 45.3021 39.9984 37.8514 33.4695 40.3624 31.7272 29.9833 27.4575 27.0312 37.748 25.8653 24.2951 31.1766 24.2555 22.1286 21.4076 24.8014
threshold=1.0000000180025095e-35 0.19642857142857142 0.65000000000000013 0.69953703703703718 0.52976190476190488 0.90000000000000013 0.0025972275636919505 0.96944444444444444 0.0014119345810329001 0.0012038309609403001 0.90000000000000013 0.0021659354385545507 0.53738888888888903 0.65000000000000013 0.90000000000000013 0.52550000000000019 0.5424382716049384 0.0025972275636919505 0.7654035400000001 0.8231481481481483 0.62500000000000011 0.64538888888888912 0.52738888888888902 0.81805555555555565 0.90856481481481477 0.5424382716049384 0.65000000000000013 0.41428571428571426 0.0016745020594830004 0.92685185185185193
decision_type=2 2 2 2 2 2 2 2 2 2 2 2 2 2 2 2 2 2 2 2 2 2 2 2 2 2 2 2 2 2
left_child=1 2 3 14 -2 7 8 12 9 -5 24 -6 13 -4 16 20 -1 -18 -13 -10 -8 22 -22 -11 25 -3 -26 -27 29 -21
right_child=4 10 5 6 11 -7 15 -9 19 23 -12 18 -14 -15 -16 -17 17 -19 -20 28 21 -23 -24 -25 26 27 -28 -29 -30 -31
leaf_value=-0.052527663698292842 -0.01296792650652241 -0.02868507043729563 -0.022146001228061693 -0.049458111561208377 -0.023464356609494613 0.040219999968857723 0.016431407578276599 0.026697169652965425 -0.039289937672336787 -0.018128846693840593 0.053721028238935001 0.047867553816775592 0.024752953801931502 0.0045690605107822418 -0.011584589369293852 -0.069548889426901239 -0.044142974860560624 -0.017694762796443948 0.02891487472860034 0.0090084072333237297 0.00028085462978533367 0.018976940324491324 -0.026925653810772901 0.016459576251868901 -0.022920251643126836 0.018877740438797121 0.041515755094958209 0.055609276041173321 -0.027660512230766623 -0.023818772375140726
leaf_weight=308.35076589602977 130.17413790524006 22.181147979572415 434.89217851101421 65.765751960687339 25.580931942909956 194.1611277712509 228.83607712108642 176.53004310838878 330.45601108716801 71.691318274009973 140.76024393178523 781.15710601815954 83.206978891510516 249.86074210517108 153.65013561025262 19.229073524475098 318.2147821392864 263.87046852242202 307.8342370595783 107.31167649570853 447.61118311900645 114.27078623324633 178.27071809582412 219.65074178017676 56.771612037904561 97.136528634466231 19.663079673424363 70.954045050777495 404.63686506263912 124.04758133739233
leaf_count=4554 1575 232 4939 831 268 1661 2262 1694 4198 871 1082 5966 885 2500 1863 169 4127 2958 2726 1079 4552 1001 1751 2180 456 849 150 536 4668 1411
internal_value=-0.000253818 -0.0092952 -0.0128568 -0.0190345 0.0353524 0.00535031 -0.011759 -0.00181794 -0.0204758 -0.00262378 0.0299903 0.0409958 -0.00837267 -0.0123979 -0.0351436 -8.40846e-05 -0.0392089 -0.0321535 0.04251 -0.0270722 0.00129441 -0.00338556 -0.00746841 0.00794831 0.0174659 0.0270306 -0.00634387 0.0343828 -0.0207241 -0.0085925
internal_weight=6146.73 4901.98 4494.52 3355.86 1244.75 1138.65 2311.78 944.49 1323.56 357.108 407.467 1114.57 767.96 684.753 1044.09 988.218 890.436 582.085 1088.99 966.452 968.989 740.153 625.882 291.342 266.706 190.272 76.4347 168.091 635.996 231.359
internal_count=63994 53459 50154 38475 10535 11679 24973 10018 15238 3882 3305 8960 8324 7439 13502 9735 11639 7085 8692 11356 9566 7304 6303 3051 2223 1617 606 1385 7158 2490
is_linear=0
shrinkage=0.05


Tree=14
num_leaves=31
num_cat=0
split_feature=3 10 3 10 2 1 2 8 0 4 7 5 2 6 8 11 1 8 6 8 8 5 8 4 8 8 7 7 4 7
split_gain=1634.74 359.223 249.245 119.361 123.669 107.429 105.609 76.8541 66.6122 57.3414 53.8626 52.0697 50.6423 48.9041 44.336 40.7008 37.8711 35.7551 33.4824 33.4758 40.6214 35.9815 33.3272 30.5054 30.4674 30.2232 28.495 24.3418 27.1809 23.7998
threshold=0.85000000000000009 1.0000000180025095e-35 0.23999999999999999 1.0000000180025095e-35 0.19642857142857142 0.0023685278150036002 0.19642857142857142 0.38005555555555554 0.76515600000000006 0.82523148148148151 0.30000000000000004 0.65000000000000013 0.14999999999999999 0.90000000000000013 0.4575555555555556 0.49750000000000005 0.0016657589663050503 0.40988888888888891 0.25000000000000006 0.52072222222222242 0.73694444444444451 0.65000000000000013 0.33922222222222231 0.96203703703703713 0.3590000000000001 0.29033333333333339 0.90000000000000013 0.30000000000000004 0.99189814814814825 0.90000000000000013
decision_type=2 2 2 2 2 2 2 2 2 2 2 2 2 2 2 2 2 2 2 2 2 2 2 2 2 2 2 2 2 2
left_child=2 6 3 4 11 9 7 23 -5 -4 14 -1 27 -6 -9 17 22 -12 -16 29 21 -21 -11 24 25 -2 -13 28 -7 -19
right_child=1 -3 5 8 13 12 -8 10 -10 16 15 26 -14 -15 18 -17 -18 19 -20 20 -22 -23 -24 -25 -26 -27 -28 -29 -30 -31
leaf_value=-0.054376069960839171 0.039437369492327706 0.060179613568769101 -0.040842969211493579 0.0035266684329704218 -0.024000156838861975 -0.027975188570505662 0.061061018393740868 -0.028011044705338575 -0.053451429704419386 -0.043109654326378269 -0.006566131999444464 -0.037617230419650566 0.024677364551368097 0.037439983546018352 0.046395190526741306 -0.068088938946585215 -0.030607091728735741 0.022346475479906685 -0.0020964264540155944 -0.004637173899103033 0.061171766774597396 0.039867212345368171 0.016643918543782322 0.051773271620222841 0.047278607632423836 0.0083360231277815368 0.0033270798329659481 0.001650464073424091 0.016128485802098212 0.048492387340477824
leaf_weight=989.89715031883679 110.00887129129842 645.12445071246475 313.53515911474824 229.18640430085361 77.803321135230362 168.60648040194064 131.85580773744732 153.50861960928887 66.086476095020771 28.313286980614066 150.34984520636499 216.78593846037984 185.20674144942313 55.484796573640779 42.664032960310578 14.630048621445892 124.20666791405529 382.00517870485783 214.92967229243368 269.85461715771817 32.885461463592947 54.606871011666954 132.72055336460471 124.61951761692762 109.63320775376633 269.40911573451012 52.853517500683665 455.51093134237453 44.064410147257149 112.71996067697182
leaf_count=16724 808 4797 4690 2474 896 1889 998 1281 954 367 1174 3198 1412 453 346 101 1630 3179 1780 2113 231 426 1346 902 839 2155 540 5011 461 819
internal_value=-0.000225395 0.0274157 -0.025037 -0.038102 -0.0442236 -0.00984929 0.0176917 0.014891 -0.00922588 -0.0260847 0.00853225 -0.0490702 0.00154222 0.00157597 -0.00674069 0.0147057 -0.00986252 0.0159141 0.00593501 0.0198808 0.00821981 0.00285291 0.00613793 0.0296894 0.024062 0.0173536 -0.0295915 -0.00487038 -0.0188371 0.0283037
internal_weight=5959.07 2818.81 3140.26 1688.1 1392.82 1452.16 2173.68 2041.83 295.273 598.776 1428.15 1259.54 853.389 133.288 411.102 1017.05 285.241 1002.42 257.594 852.072 357.347 324.461 161.034 613.671 489.051 379.418 269.639 668.182 212.671 494.725
internal_count=63994 21949 42045 25239 21811 16806 17152 16154 3428 8033 11450 20462 8773 1349 3407 8043 3343 7942 2126 6768 2770 2539 1713 4704 3802 2963 3738 7361 2350 3998
is_linear=0
shrinkage=0.05


Tree=15
num_leaves=31
num_cat=0
split_feature=3 10 3 10 2 2 9 2 4 10 3 0 5 7 7 0 0 1 6 0 1 0 10 7 6 1 5 7 7 11
split_gain=1361.02 332.053 235.721 106.847 119 105.948 110.664 97.1478 71.1268 56.2939 56.587 54.852 51.7452 46.9561 45.7851 42.7379 39.4877 41.666 37.1953 28.1548 26.2856 29.6366 25.7651 25.5132 25.2602 23.5609 21.5211 20.7486 19.9008 18.3009
threshold=0.85000000000000009 1.0000000180025095e-35 0.23999999999999999 1.0000000180025095e-35 0.23928571428571427 0.19642857142857142 0.92500000000000016 0.064285714285714265 0.6795634920634922 1.0000000180025095e-35 0.48999999999999999 0.76515600000000006 0.65000000000000013 0.90000000000000013 0.65000000000000013 0.76392593500000017 0.72192757500000015 0.0016936951998414503 0.90000000000000013 0.72367306500000017 0.0025278403526405504 0.78007742000000013 0.80000000000000016 0.90000000000000013 0.6000000000000002 0.0021229355040754006 0.65000000000000013 0.65000000000000013 0.65000000000000013 0.52550000000000019
decision_type=2 2 2 2 2 2 2 2 2 2 2 2 2 2 2 2 2 2 2 2 2 2 2 2 2 2 2 2 2 2
left_child=2 5 3 4 12 6 19 9 -8 10 -4 22 27 16 -12 24 -10 -18 28 -2 -19 -22 -5 -14 -11 -3 -16 -1 -6 -21
right_child=1 25 7 11 18 -7 8 -9 13 15 14 -13 23 -15 26 -17 17 20 -20 29 21 -23 -24 -25 -26 -27 -28 -29 -30 -31
leaf_value=-0.058796807993040545 -0.003121878374905511 -0.007125385352853477 -0.039972158156412661 -0.001092434382481719 -0.045664418598839671 0.060540321172382984 -0.016474766011838626 0.023380881538650054 -0.028476640921269794 0.05523055914672273 -0.02333234029742981 -0.049928256585435912 -0.034889676805978646 0.036006965327590866 -0.008058688271629989 -0.024694422138335378 0.029777520006829372 -0.0098006398834403364 0.037078580606339909 0.037007192808331139 0.013968776273741025 -0.042566216907192096 0.070730877983000998 0.0047035072993921907 0.010637173995455834 0.060011220436936644 0.018187638632132627 -0.043810119471457125 0.0088598554532362383 -0.076077205673767148
leaf_weight=540.00424006488174 50.129358135163784 13.36542162671685 239.55961856385693 208.43329976405948 34.521507378667593 127.49199419654906 279.02231022389606 207.35176269058138 70.873690165579319 44.040129678323865 404.46379696950316 62.18462055362761 205.31919972412288 169.04636303288862 210.85921509563923 66.560085866600275 210.3163679940626 222.32746189227328 52.149897785391659 494.66396520030685 448.33638755744323 24.445023855194449 13.282215068116782 50.743456498719752 113.85857953503728 587.49505819194019 124.05242734006606 403.53179317247123 32.481362249702215 3.603795710951089
leaf_count=10056 393 85 3903 2325 447 1044 2985 1663 630 287 5470 968 3162 1269 2584 746 1587 1971 401 3683 3489 180 104 536 895 4697 1273 6823 355 27
internal_value=-3.10505e-05 0.0257422 -0.0231334 -0.0362538 -0.0422438 0.0163654 0.0135106 -0.00822822 0.00616253 -0.0136747 -0.018853 -0.00842904 -0.0469775 0.0116773 -0.0120103 0.00890957 0.0074646 0.010278 0.00541338 0.0325958 0.00437806 0.0110457 0.00321025 -0.0270436 0.0230749 0.0585178 0.00166304 -0.0523873 -0.0192324 0.0361893
internal_weight=5714.51 2701.12 3013.4 1602.65 1318.75 2100.26 1972.76 1410.75 1424.37 1203.39 978.935 283.9 1199.6 1145.35 739.375 224.459 976.299 905.425 119.153 548.397 695.109 472.781 221.716 256.063 157.899 600.86 334.912 943.536 67.0029 498.268
internal_count=64038 22040 41998 25177 21780 17258 16214 16821 12111 15158 13230 3397 20577 9126 9327 1928 7857 7227 1203 4103 5640 3669 2429 3698 1182 4782 3857 16879 802 3710
is_linear=0
shrinkage=0.05


Tree=16
num_leaves=31
num_cat=0
split_feature=3 3 1 2 1 4 4 2 0 5 2 7 8 5 1 1 1 9 11 7 8 1 9 1 9 6 8 8 7 7
split_gain=1208.46 206.709 130.282 93.6344 89.4928 62.7256 54.9679 46.7912 44.9789 42.3808 35.1391 35.0603 32.9504 34.9797 28.5212 28.0957 39.4017 26.2309 24.0799 23.6161 22.0238 21.7434 20.6573 20.3517 19.4216 19.13 19.0505 22.0248 18.8184 18.4759
threshold=0.85000000000000009 0.23999999999999999 0.0025748458946484002 1.0000000180025095e-35 0.0025278403526405504 0.8231481481481483 0.82523148148148151 0.14999999999999999 0.77813345000000012 0.65000000000000013 0.14999999999999999 0.65000000000000013 0.64538888888888912 0.65000000000000013 0.0014032007238991002 0.0012038309609403001 0.0014119345810329001 0.62500000000000011 0.49750000000000005 0.90000000000000013 0.31005555555555558 0.0012038309609403001 0.92500000000000016 0.0024671126128095505 0.92500000000000016 0.90000000000000013 0.37894444444444447 0.42338888888888898 0.30000000000000004 0.65000000000000013
decision_type=2 2 2 2 2 2 2 2 2 2 2 2 2 2 2 2 2 2 2 2 2 2 2 2 2 2 2 2 2 2
left_child=1 3 5 12 6 9 -3 8 17 20 -6 -5 13 23 21 -7 -17 -4 -9 -15 -2 -8 -11 -1 -18 -13 -19 -28 -10 -24
right_child=2 4 7 11 10 15 14 18 28 22 -12 25 -14 19 -16 16 24 26 -20 -21 -22 -23 29 -25 -26 -27 27 -29 -30 -31
leaf_value=-0.052728417497957369 0.020393184409441656 -0.037117967740194428 0.046989649150105853 -0.022891062586223934 -0.0026093149865925856 -0.037074885464542767 -0.051706600632268063 0.059421954412312433 -0.030996178346137132 0.04541038147453938 0.022929045403218311 -0.0011910479464770089 -0.0085975154870465888 -0.033354822098469274 -0.016491942769121411 0.04883529677053447 0.034090329901012413 0.047497340096800969 0.0068019000151360066 0.0053431662013733632 -0.017801023842803489 0.028690436887606738 -0.015628017423502255 -0.037883897340333449 0.010468814138638885 0.043092019952430366 0.0017071111401434338 0.029181820142546062 0.013648901765643299 0.026342219310735954
leaf_weight=568.03854067251086 43.746044722385705 311.91209183027968 269.02284591575153 140.82029720023274 589.84630384901538 19.156601755879819 9.5772306192666274 221.00557955494151 33.954138312488794 50.838891623541713 174.55257913377136 65.216611847281456 76.677135013509542 191.39063736610115 207.02349924296141 128.07670487975702 121.78602715954185 122.66764782555401 24.113821964710951 49.653159217908978 275.04656324163079 68.993446541018784 49.517764541320503 389.01410192344338 304.81123303063214 38.956131229177117 81.523011000361294 693.09090007236227 77.428397919749841 55.736984753981233
leaf_count=10826 394 5078 2155 1868 6802 203 127 1877 259 397 1382 778 1106 3100 2779 1001 920 988 200 524 2727 653 551 6595 2522 380 750 6012 638 446
internal_value=-2.09104e-05 -0.0222557 0.0248956 -0.0349326 -0.00810944 0.011334 -0.0226065 0.0342351 0.0303962 -0.00210788 0.00322244 -0.00662265 -0.0403733 -0.042407 -0.00675775 0.0224582 0.0245142 0.0332953 0.0542454 -0.0253833 -0.0125599 0.0188906 0.0192384 -0.0466946 0.0172123 0.0153689 0.0291895 0.0262903 3.91809e-05 0.00659706
internal_weight=5453.19 2881.67 2571.52 1519.77 1361.91 1048.72 597.506 1522.81 1277.69 474.886 764.399 244.993 1274.77 1198.1 285.594 573.831 554.674 1166.3 245.119 241.044 318.793 78.5707 156.094 957.053 426.597 104.173 897.282 774.614 111.383 105.255
internal_count=64038 41998 22040 25177 16821 9161 8637 12879 10802 4515 8184 3026 22151 21045 3559 4646 4443 9905 2077 3624 3121 780 1394 17421 3442 1158 7750 6762 897 997
is_linear=0
shrinkage=0.05


Tree=17
num_leaves=31
num_cat=0
split_feature=3 10 3 10 2 2 9 10 2 4 3 0 5 0 8 7 6 5 8 0 7 5 10 4 7 7 8 7 8 8
split_gain=1063.95 301.886 184.338 104.935 105.349 89.3298 84.6309 72.6405 64.3091 62.3186 59.3148 49.2322 49.0257 41.3488 38.3313 32.4574 31.5523 28.7159 27.2622 24.2083 23.2293 23.2103 21.3803 19.5921 19.4124 19.2952 18.4974 22.0008 23.1719 17.9858
threshold=0.85000000000000009 1.0000000180025095e-35 0.23999999999999999 1.0000000180025095e-35 0.23928571428571427 0.19642857142857142 0.62500000000000011 1.0000000180025095e-35 0.28214285714285714 0.6795634920634922 0.48999999999999999 0.76515600000000006 0.65000000000000013 0.76392593500000017 0.37894444444444447 0.65000000000000013 0.90000000000000013 0.65000000000000013 0.75872222222222241 0.72441050000000007 0.65000000000000013 0.65000000000000013 0.80000000000000016 0.99722222222222234 0.90000000000000013 0.65000000000000013 0.38005555555555554 0.30000000000000004 0.4575555555555556 0.35777777777777781
decision_type=2 2 2 2 2 2 2 2 2 2 2 2 2 2 2 2 2 2 2 2 2 2 2 2 2 2 2 2 2 2
left_child=2 5 3 4 12 6 26 8 10 -8 -4 22 25 -9 19 -12 -6 18 -16 -11 -14 -17 -5 29 -23 -1 -2 28 -28 -21
right_child=1 -3 7 11 16 -7 9 13 -10 14 15 -13 20 -15 17 21 -18 -19 -20 23 -22 24 -24 -25 -26 -27 27 -29 -30 -31
leaf_value=-0.057176689174896572 0.043056825418766251 0.057380816498987769 -0.03886867494414243 0.0022445749895390324 -0.01759794076258521 0.057621233568098 -0.01637046190362542 0.028900492496631791 0.026998099162097489 -0.014313361778012196 -0.019785929298387669 -0.046676345268971839 -0.040982433223263504 -0.015357890204880771 -0.0024088172201724074 -0.0088014283971400223 0.035985293197248629 0.022297460354307196 0.065853308078666503 0.016563383821013185 -0.0095943087578929786 0.0030987461078691783 0.07058081003474706 0.058629193553230999 0.044248489158665312 -0.041842553583668327 -0.024386285155018127 0.030718331605849938 0.024765030841372541 0.050399646603023124
leaf_weight=474.53737265896052 166.49791521765292 525.26192371873185 241.06891324650496 192.96062630880624 61.710470509715378 114.06760899443179 263.57426366629079 181.61556761851534 89.202542392536998 33.819083467125893 402.56800199393183 55.786496324464679 113.93706141877919 74.388577984645963 566.62861791625619 206.82382988743484 49.519364072941244 178.13350956933573 15.014112658798693 174.26845102384686 122.1259693428874 75.505742704495788 12.167732748202978 50.57768480014056 46.19565354869701 361.37928469292819 43.746429326012731 244.41905892966315 53.066916804760695 50.699941210681573
leaf_count=10056 1362 4782 4178 2325 802 1044 2989 1427 678 301 5673 968 2078 879 4963 2675 401 1505 126 1391 1620 901 104 408 410 6823 354 1937 446 432
internal_value=-4.43606e-05 0.0237284 -0.0213919 -0.0337302 -0.0400594 0.0146845 0.0120233 -0.00786634 -0.0136326 0.00540544 -0.0173608 -0.00502841 -0.0448653 0.0160401 0.0107738 -0.0102688 0.00625724 0.00473264 -0.000646747 0.0256105 -0.024744 0.00139324 0.00629812 0.0305106 0.0187184 -0.0505475 0.0293944 0.022728 0.00255534 0.0241889
internal_weight=5241.27 2479.78 2761.49 1444.12 1183.21 1954.51 1840.45 1317.37 1061.36 1332.72 972.162 260.915 1071.98 256.004 1069.14 731.093 111.23 759.776 581.643 309.365 236.063 328.525 205.128 275.546 121.701 835.917 507.73 341.232 96.8133 224.968
internal_count=64038 22040 41998 25177 21780 17258 16214 16821 14515 12115 13837 3397 20577 2306 9126 9659 1203 6594 5089 2532 3698 3986 2429 2231 1311 16879 4099 2737 800 1823
is_linear=0
shrinkage=0.05


Tree=18
num_leaves=31
num_cat=0
split_feature=3 3 1 2 1 7 4 4 2 0 6 2 8 5 1 1 8 1 8 5 11 8 1 7 11 9 7 8 5 4
split_gain=923.143 169.976 107.5 79.3763 77.1576 53.018 52.4305 47.6476 41.6574 41.4847 32.3206 32.0897 29.5363 29.5184 29.3972 29.8945 28.0525 31.6489 24.576 24.3439 22.1132 21.2528 20.6448 20.0627 19.6548 18.6418 18.2519 17.5745 17.321 17.0975
threshold=0.85000000000000009 0.23999999999999999 0.0025748458946484002 1.0000000180025095e-35 0.0025278403526405504 0.90000000000000013 0.8231481481481483 0.82523148148148151 0.14999999999999999 0.77813345000000012 0.90000000000000013 0.14999999999999999 0.64538888888888912 0.65000000000000013 0.0017037872019265003 0.0012038309609403001 0.33922222222222231 0.0016561683173296003 0.38133333333333341 0.65000000000000013 0.49750000000000005 0.74727777777777804 0.0024468022855895005 0.90000000000000013 0.52550000000000019 0.92500000000000016 0.30000000000000004 0.38005555555555554 0.65000000000000013 0.99722222222222234
decision_type=2 2 2 2 2 2 2 2 2 2 2 2 2 2 2 2 2 2 2 2 2 2 2 2 2 2 2 2 2 2
left_child=1 3 5 12 7 6 19 -3 9 18 -5 -6 13 22 15 -8 -9 -18 -4 -2 -10 24 -1 -15 25 -20 -11 29 -7 -16
right_child=2 4 8 10 11 28 14 16 20 26 -12 -13 -14 23 27 -17 17 -19 21 -21 -22 -23 -24 -25 -26 -27 -28 -29 -30 -31
leaf_value=-0.050710774608647903 -0.018097503079122022 -0.035316896654777233 0.049015218485243151 -0.020560030342046523 -0.0020932595032446696 0.025878402866442968 -0.038887452327592914 -0.040550914897109352 0.056998384613466291 -0.033520308949055659 0.018090757526901664 0.023076490462402489 -0.0065986718376687785 -0.031506704234067616 0.008523248580427429 0.032918051933924226 0.019027820086513311 -0.01893927569179113 0.040667034739743105 0.009178825485664328 0.0044906952513673118 0.059125706782114366 -0.034951668422979414 0.0051027331185358018 -0.03289076311427979 0.02277389501407245 0.011767241875740407 -0.0080379435387991239 0.062438368170035174 0.062503589611486263
leaf_weight=497.48674097377807 246.77800586726516 287.26888439431787 157.6751222088933 138.93673631921411 556.81003214791417 106.50857200380415 15.491634220816193 48.313612177968025 196.2690815939568 32.284408964216709 88.56764716480393 163.91126960655674 70.980174775235355 175.68759202584624 61.479693546891212 225.29460249049589 118.96135832555592 101.91009882465005 187.11387453321368 122.3607000047341 22.333016027696431 50.57184187695384 356.92109951749444 47.552650064229965 14.045677909627555 655.52909574424848 71.565057458356023 136.17947351606563 46.558259387034923 19.265886033885181
leaf_count=10741 2648 5078 1432 2017 6802 922 177 733 1877 259 1009 1382 1106 3100 505 1848 1336 1490 1639 1192 200 472 6680 524 124 6238 638 1281 405 183
internal_value=-5.22876e-05 -0.0203039 0.022646 -0.0324956 -0.00716753 0.00996796 0.004964 -0.0211538 0.0316005 0.0278536 -0.00551325 0.00363101 -0.0378399 -0.0398976 0.016271 0.0282983 -0.0060393 0.0015098 0.0307952 -0.00905605 0.051634 0.0276287 -0.0441276 -0.0237085 0.0257694 0.0267472 -0.00231162 0.00292078 0.0369988 0.021403
internal_weight=5020.61 2653.31 2367.3 1376.13 1277.18 979.917 826.85 556.454 1387.39 1168.79 227.504 720.721 1148.63 1077.65 457.711 240.786 269.185 220.871 1064.94 369.139 218.602 907.26 854.408 223.24 856.689 842.643 103.849 216.925 153.067 80.7456
internal_count=64038 41998 22040 25177 16821 9161 7834 8637 12879 10802 3026 8184 22151 21045 3994 2025 3559 2826 9905 3840 2077 8473 17421 3624 8001 7877 897 1969 1327 688
is_linear=0
shrinkage=0.05


Tree=19
num_leaves=31
num_cat=0
split_feature=3 10 10 3 2 9 0 2 4 5 2 8 1 5 4 1 5 8 8 8 0 1 1 1 6 4 5 8 4 1
split_gain=818.239 278.073 168.656 187.374 117.56 77.4796 77.2001 70.6736 51.9434 48.4227 36.4872 32.9179 32.0872 27.1925 25.9921 20.8311 20.5117 19.9581 20.0667 31.0472 17.9164 17.751 16.6541 16.5079 15.917 17.611 15.7329 15.487 15.2747 17.3248
threshold=0.85000000000000009 1.0000000180025095e-35 1.0000000180025095e-35 0.48999999999999999 0.37142857142857144 0.92500000000000016 0.76515600000000006 0.19642857142857142 0.6795634920634922 0.65000000000000013 0.19642857142857142 0.28705555555555556 0.0021821732343089008 0.65000000000000013 0.60937500000000011 0.0012038309609403001 0.65000000000000013 0.75872222222222241 0.53061111111111126 0.61850000000000016 0.72367306500000017 0.0014119345810329001 0.0016936951998414503 0.0021229355040754006 0.90000000000000013 0.89513888888888904 0.65000000000000013 0.68738888888888905 0.82523148148148151 0.0021518788934057503
decision_type=2 2 2 2 2 2 2 2 2 2 2 2 2 2 2 2 2 2 2 2 2 2 2 2 2 2 2 2 2 2
left_child=2 5 3 4 9 15 12 8 -7 -1 13 -10 -4 28 27 -2 17 18 20 -20 -13 -22 -18 -3 25 -12 -27 -14 29 -5
right_child=1 23 6 10 -6 7 -8 -9 11 -11 24 16 14 -15 -16 -17 22 -19 19 -21 21 -23 -24 -25 -26 26 -28 -29 -30 -31
leaf_value=-0.046311382995876636 -0.04333564182661101 -0.0047745646713404019 -0.056920789104178332 -0.043811855636550989 0.021324483827725525 -0.016630005544124013 -0.030598962478984443 0.054872061836721525 0.044450806799563675 -0.022793609867251746 0.031379251371293257 -0.017626533585809148 -0.012353838832519656 0.0046308610233737335 0.027916321085145437 0.031145603438714281 0.039195196598727444 0.063374066909667071 -0.028928197940515311 0.010999684367385833 0.040413868870608043 0.0068553552868369453 0.01050715369652405 0.057700131411323935 0.061114656181212368 -0.05305323218410795 0.038490538219229327 0.042062747666956252 -0.008186061113539346 -0.014587456726936482
leaf_weight=951.30291447788477 9.5718272533267719 10.825924520380793 13.963886572048066 86.560315390117466 80.873276355676353 249.20096029900014 106.89104572124779 71.604447491466999 61.080329540651292 284.28253923449665 40.967383890412748 66.134040642529726 75.15776227414608 220.49976979615167 276.89718542527407 488.0197876887396 72.56852031359449 13.102523390203713 116.53179751895368 83.624845425598323 44.017855267971754 376.07351102540269 167.02927915286273 453.66224231105298 22.463644476607442 14.927150348201396 6.8459920566529027 15.828835703432558 239.10279776062816 122.45434569381177
leaf_count=20559 91 85 241 1614 787 2985 1714 740 501 4796 307 663 1117 2872 2458 4316 647 126 1074 718 385 3488 1524 4697 211 110 53 173 3219 1767
internal_value=-4.4468e-05 0.0217163 -0.0194585 -0.0256952 -0.0370778 0.0128974 0.00696011 0.00656319 0.00379448 -0.0409004 -0.00581692 0.00888345 0.0174741 -0.0097438 0.0202979 0.0297129 0.00657006 0.00224521 0.0010783 -0.0122464 0.00656349 0.0103717 0.0191961 0.056244 0.0249983 0.0120671 -0.0242697 -0.00288705 -0.016817 -0.0266903
internal_weight=4842.07 2283.05 2559.02 2070.28 1316.46 1818.56 488.739 1320.97 1249.36 1235.59 753.821 1000.16 381.848 668.617 367.884 497.592 939.082 699.485 686.382 200.157 486.225 420.091 239.598 464.488 85.2042 62.7405 21.7731 90.9866 448.117 209.015
internal_count=64038 22040 41998 36295 26142 17258 5703 12851 12111 25355 10153 9126 3989 9472 3748 4407 8625 6454 6328 1792 4536 3873 2171 4782 681 470 163 1290 6600 3381
is_linear=0
shrinkage=0.05


Tree=20
num_leaves=31
num_cat=0
split_feature=3 10 3 10 2 1 2 7 7 11 4 4 6 8 2 10 3 5 9 1 1 6 8 1 8 2 9 4 8 10
split_gain=782.078 235.569 152.839 83.0965 84.8504 69.6748 69.5435 72.0932 45.0461 43.8259 41.1656 38.0946 34.2092 33.4518 31.931 31.1697 32.2154 30.9798 30.627 26.8772 25.6118 22.9404 21.2283 20.0353 19.7304 19.6401 17.8977 17.0677 16.8811 15.6408
threshold=0.85000000000000009 1.0000000180025095e-35 0.23999999999999999 1.0000000180025095e-35 0.23928571428571427 0.0025079433458111001 0.14999999999999999 0.65000000000000013 0.65000000000000013 0.52650000000000008 0.71203703703703713 0.81180555555555567 0.90000000000000013 0.38005555555555554 0.32500000000000001 1.0000000180025095e-35 0.48999999999999999 0.65000000000000013 0.92500000000000016 0.0016561683173296003 0.0014119345810329001 0.90000000000000013 0.3325555555555556 0.0012038309609403001 0.52894444444444466 1.0000000180025095e-35 0.92500000000000016 0.64087301587301593 0.68094444444444457 0.80000000000000016
decision_type=2 2 2 2 2 2 2 2 2 2 2 2 2 2 2 2 2 2 2 2 2 2 2 2 2 2 2 2 2 2
left_child=2 6 3 4 8 11 7 10 -1 -8 26 -4 -6 -12 15 16 -7 -10 -9 22 23 -22 -13 -20 -23 -17 -2 -19 -15 -5
right_child=1 -3 5 29 12 14 9 18 17 -11 13 19 -14 28 -16 25 -18 27 20 -21 21 24 -24 -25 -26 -27 -28 -29 -30 -31
leaf_value=-0.052590736659715358 0.0046198399229211507 0.054770444118400541 -0.03450274523158469 -0.0076023649704675157 -0.020515562086583766 -0.031957957929349988 0.054479324169430909 0.040500355522568587 -0.038414055930157454 -0.056834761325947551 0.025879053865849284 -0.035658534381716712 0.03767739129509922 -0.001184747013414038 0.038588108599491966 0.0069588982412382957 0.00067829200612330265 0.023690958259104406 -0.030326028286313391 -0.023918606020079999 0.0037644590521125178 0.039046341420371306 0.016929733271329735 0.055662245345609186 -0.0065793423454922886 0.041191676795617214 -0.023586287707449874 -0.020023034540595338 0.035290860833092866 0.048477776147745108
leaf_weight=499.51475819712505 81.298658779356629 436.36170451622456 246.76479306071997 217.19322745315731 56.312634037807584 101.45288648502901 133.69259480037726 187.25638459064066 307.00013656681404 9.46866686362773 194.83019716548733 23.05541702453047 45.790436803246848 453.32500153803267 61.022306703031063 159.85045637725852 296.89163389103487 31.492483475245535 7.6685298196971408 125.02693660464138 276.68049958534539 105.77020052704029 114.46364291477948 58.084558871109039 30.535810972563922 56.781609683297575 182.46768887946382 76.741752509027719 34.106761631555855 13.188120363280175
leaf_count=12130 702 4834 4798 3198 804 1823 1419 1653 6725 82 1816 360 417 4372 504 1618 3770 411 91 1976 2583 1025 1365 566 295 532 2262 1196 294 153
internal_value=0.000229588 0.0218935 -0.019288 -0.031506 -0.037649 -0.00643175 0.0137199 0.0107539 -0.0424745 0.047117 0.00188203 -0.0203978 0.00558239 0.00836717 0.00409054 0.000667448 -0.00763371 -0.0303049 0.0233561 -0.00714067 0.0166503 0.0120357 0.00811318 0.0456338 0.0288251 0.0159317 -0.0148925 -0.00730375 0.00136754 -0.00439207
internal_weight=4624.09 2191.55 2432.54 1247.23 1016.85 1185.31 1755.19 1612.02 914.749 143.161 946.028 509.311 102.103 682.262 675.999 614.977 398.345 415.234 665.996 262.546 478.74 412.987 137.519 65.7531 136.306 216.632 263.766 108.234 487.432 230.381
internal_count=63774 21994 41780 25034 21683 16746 17160 15659 20462 1501 9446 8499 1221 6482 8247 7743 5593 8332 6213 3701 4560 3903 1725 657 1320 2150 2964 1607 4666 3351
is_linear=0
shrinkage=0.05


Tree=21
num_leaves=31
num_cat=0
split_feature=3 10 10 2 2 7 7 3 11 4 3 5 5 4 8 1 3 7 7 1 8 4 8 8 8 8 2 9 3 9
split_gain=699.006 259.484 148.894 98.4747 84.9016 79.5176 48.1666 43.4418 38.2618 36.4558 35.6408 35.0707 32.9447 27.9769 25.8975 21.7617 24.1932 21.7154 20.4154 20.3696 18.7432 17.8286 17.4262 19.4735 16.4359 16.2574 15.9839 15.9802 15.4843 15.4095
threshold=0.48999999999999999 1.0000000180025095e-35 1.0000000180025095e-35 0.28214285714285714 0.14999999999999999 0.65000000000000013 0.65000000000000013 0.85000000000000009 0.52650000000000008 0.68584656084656104 0.85000000000000009 0.65000000000000013 0.65000000000000013 0.60937500000000011 0.38005555555555554 0.0014032007238991002 0.85000000000000009 0.90000000000000013 0.65000000000000013 0.0012038309609403001 0.37894444444444447 0.69014550264550267 0.41100000000000009 0.51738888888888912 0.63727777777777794 0.75872222222222241 0.064285714285714265 0.92500000000000016 0.85000000000000009 0.92500000000000016
decision_type=2 2 2 2 2 2 2 2 2 2 2 2 2 2 2 2 2 2 2 2 2 2 2 2 2 2 2 2 2 2
left_child=2 4 3 6 5 7 -1 -2 28 29 26 -8 15 -4 -11 19 -17 -14 -5 -7 -18 -15 -22 -24 -25 27 -3 -16 -6 -9
right_child=1 10 13 18 8 12 11 9 -10 14 -12 -13 17 21 25 16 20 -19 -20 -21 22 -23 23 24 -26 -27 -28 -29 -30 -31
leaf_value=-0.049279730257401469 -0.018591769813507988 0.01105493861948325 -0.018529942442641865 -0.010634375488481796 0.025509805028527722 -0.029086130583931044 -0.036137592792863119 0.0035629391254490255 -0.056137051436773569 0.022862214109634845 0.053909186694820616 -0.0057191811557604395 0.020382964663583969 0.037496458446765905 0.015510255432744195 -0.011724293501352468 0.029203024564048385 0.049615385685116239 0.033826650491936651 0.040739909070173899 -0.022908396223880474 0.0042429063369241763 0.023265032904349909 -0.01958473735933431 0.02344248635013927 0.063119280528052504 0.068675310635433029 -0.0049550557313640733 0.053173012755699481 -0.025615006693162464
leaf_weight=599.91992312436923 339.00010683573782 79.819057832006365 115.6017982470803 52.34407261479646 84.561412295326591 11.962597222998737 360.19505367940292 67.040987289045006 10.411011502146719 202.55253108614124 406.24924354581162 128.5836246535182 189.9023757756222 51.512023561168462 129.09604353597388 143.82221594173461 115.19652907864656 95.467394393170252 50.950439967215061 82.303935429314151 45.939982515759766 185.29953033733182 134.11581845907494 69.00351192522794 32.718288344796747 10.548850928433238 14.172736013308166 365.28943306347355 125.90052062505856 139.21341153979301
leaf_count=14800 5506 840 1904 618 754 148 8048 595 94 1949 4834 2032 2036 563 1165 2245 1121 956 528 856 430 2214 1297 663 309 113 113 3731 1419 1893
internal_value=0.000244012 0.0147382 -0.0269187 -0.0353601 0.00789467 0.00489285 -0.0397868 -0.00330538 0.0374297 0.00236591 0.0474897 -0.0281354 0.0160509 0.0016334 0.00775833 0.00970985 0.00584555 0.0301624 0.0112962 0.0318789 0.012211 0.0114763 0.00526436 0.0107523 -0.00574525 0.00169947 0.0197433 0.000388934 0.0420582 -0.016131
internal_weight=4438.69 2894.29 1544.41 1191.99 2394.05 2173.17 1088.7 1252.74 220.873 913.741 500.241 488.779 920.433 352.413 707.487 635.063 540.796 285.37 103.295 94.2665 396.974 236.812 281.778 235.838 101.722 504.934 93.9918 494.385 210.462 206.254
internal_count=63774 33067 30707 26026 27280 25013 24880 14952 2267 9446 5787 10080 10061 4681 6958 7069 6065 2992 1146 1004 3820 2777 2699 2269 972 5009 953 4896 2173 2488
is_linear=0
shrinkage=0.05


Tree=22
num_leaves=31
num_cat=0
split_feature=3 10 3 10 1 7 9 4 0 4 0 1 0 8 1 1 5 11 8 4 8 10 0 0 3 4 1 1 8 5
split_gain=626.264 197.739 127.796 67.6182 62.4042 55.5291 51.3622 46.0665 40.7491 36.6692 32.8575 27.2074 26.3673 24.7409 24.7358 28.3086 24.5939 20.6626 22.9075 19.2043 18.8132 18.4459 29.0105 17.3065 16.6547 16.5732 16.1013 15.9766 15.566 19.9719
threshold=0.85000000000000009 1.0000000180025095e-35 0.23999999999999999 1.0000000180025095e-35 0.0022472433597854006 0.65000000000000013 0.92500000000000016 0.6795634920634922 0.76492411000000005 0.82523148148148151 0.77854269500000017 0.0015843166186762002 0.72367306500000017 0.37894444444444447 0.0016657589663050503 0.0025748458946484002 0.65000000000000013 0.52650000000000008 0.62538888888888911 0.60937500000000011 0.3325555555555556 1.0000000180025095e-35 0.76414530000000014 0.72578390000000015 0.48999999999999999 0.99722222222222234 0.0025508229065816005 0.0021981426553697001 0.52894444444444466 0.65000000000000013
decision_type=2 2 2 2 2 2 2 2 2 2 2 2 2 2 2 2 2 2 2 2 2 2 2 2 2 2 2 2 2 2
left_child=2 6 3 5 9 -1 23 -8 27 -4 16 20 -9 25 -15 -16 -7 18 28 -6 -11 24 -23 -2 -21 26 -14 -5 -17 -30
right_child=1 -3 4 8 19 10 7 12 -10 11 -12 -13 13 14 15 17 -18 -19 -20 21 -22 22 -24 -25 -26 -27 -28 -29 29 -31
leaf_value=-0.046883992390080495 -0.0019550381676173181 0.05307308126352555 -0.03576630423697133 -0.055276750863669025 -0.026180058597730694 -0.034199094005725107 -0.012118916378073653 -0.016946221438137964 -0.045491615198904017 -0.037317088559894816 0.020377793101042874 -0.024786686179630386 0.011321400515806953 0.030307571418697873 -0.015175075398410934 0.014818092162402076 -0.0055910527954318757 -0.057601443327686602 0.036155777480191643 -0.018153425799736927 0.019845739911567489 0.030571038148080827 -0.011979377848032215 0.030635799381511848 0.005262240684907462 0.056821164831978757 0.04068709338749979 0.010589706664978771 -0.019003249940987076 0.051228119293896549
leaf_weight=494.08386147150304 45.283003844786435 379.14223378617316 209.41464236052707 9.7629463076591474 50.642971912398934 290.23604715103284 238.26577834645286 70.467994255013764 47.528393650427461 17.0314910877496 40.757633429951966 102.80048714298755 123.53644427482504 118.15682712593116 130.58955893316306 197.09076504223049 101.3637556489557 10.448678270913659 87.105442466912791 97.057743172626942 92.93915303144604 141.50093757011928 55.87599999178201 405.49030991387554 348.99557244195603 42.497258894378319 75.028766251867637 161.52949385670945 80.059120722580701 11.587919414509086
leaf_count=12794 435 4834 4385 197 821 6797 3106 785 978 290 514 1705 1194 1151 1503 1964 1578 111 809 1789 1120 1229 742 3949 4665 443 742 2176 840 128
internal_value=0.000266199 0.0205386 -0.0177942 -0.0295285 -0.00575493 -0.035433 0.012997 0.00753182 -0.00453 -0.020913 -0.0223472 -0.0062941 0.0124782 0.0148449 0.00966808 0.00494998 -0.026794 0.0117534 0.0136815 0.00346534 0.0109928 0.00579867 0.0185253 0.0273618 0.000167173 0.0284825 0.0224174 0.0068356 0.0069016 -0.0101231
internal_weight=4276.27 2014.75 2261.52 1145.26 1116.26 926.441 1635.61 1184.83 218.821 422.186 432.357 212.771 946.569 876.101 635.038 516.881 391.6 386.292 375.843 694.073 109.971 643.43 197.377 450.773 446.053 241.062 198.565 171.292 288.738 91.647
internal_count=63774 21994 41780 25034 16746 21683 17160 12776 3351 7500 8889 3115 9670 8885 6506 5355 8375 3852 3741 9246 1410 8425 1971 4384 6454 2379 1936 2373 2932 968
is_linear=0
shrinkage=0.05


Tree=23
num_leaves=31
num_cat=0
split_feature=3 10 10 2 2 7 0 0 7 1 3 5 3 11 9 3 10 4 5 4 1 4 3 8 8 2 4 0 1 2
split_gain=559.609 214.549 120.657 104.234 74.2992 70.5348 60.5998 48.1939 43.5943 36.1065 33.3241 29.2206 28.8248 27.1609 26.9175 25.7474 24.7247 22.5289 21.3284 18.4131 17.3818 16.9857 15.647 15.5823 16.9193 15.3605 14.9921 14.4672 13.6561 13.6043
threshold=0.48999999999999999 1.0000000180025095e-35 1.0000000180025095e-35 0.37142857142857144 0.14999999999999999 0.65000000000000013 0.76515600000000006 0.72799423000000008 0.65000000000000013 0.0014119345810329001 0.85000000000000009 0.65000000000000013 0.85000000000000009 0.51150000000000018 0.92500000000000016 0.85000000000000009 0.80000000000000016 0.6795634920634922 0.65000000000000013 0.59623015873015883 0.0023871816588313505 0.8231481481481483 0.85000000000000009 0.38005555555555554 0.62927777777777794 0.064285714285714265 0.81805555555555565 0.73038192500000021 0.0016561683173296003 0.19642857142857142
decision_type=2 2 2 2 2 2 2 2 2 2 2 2 2 2 2 2 2 2 2 2 2 2 2 2 2 2 2 2 2 2
left_child=2 4 3 8 5 7 16 26 -1 27 25 29 -11 22 -14 -7 19 -16 21 -4 -21 -17 -6 -19 28 -3 -2 -9 -25 -10
right_child=1 10 6 -5 13 15 -8 9 11 12 -12 -13 14 -15 17 18 -18 23 -20 20 -22 -23 -24 24 -26 -27 -28 -29 -30 -31
leaf_value=-0.046679814777691481 -0.04845868745924415 0.0095434412527350462 -0.012106165367885625 0.024601753188198308 0.023778853720817776 0.0024377685030509129 -0.039461690925915463 0.00049876699624661406 -0.0360531296927699 -0.016493728424986913 0.052133698042146737 -0.0055341923911052145 0.01898748543003002 -0.047740364929899332 -0.024084495168376657 0.0052977479928239223 0.066274686059874896 0.018689598508002458 0.036126275620715763 -0.037076484435294842 0.022209662020448568 0.025157598731823501 0.05269854001236908 0.021332913304944121 0.021991363800784834 0.067313942603129104 -0.016265912907346809 0.048693674196478229 -0.013475118597492931 0.0062478099776704966
leaf_weight=551.80344373965636 63.482702846638858 76.998301903251559 77.511263987515122 73.24377660616301 81.128539795055985 265.7707724487409 71.757221331819892 22.317837262758985 322.85660287179053 256.99134724214673 357.84349264693446 127.56586154410616 192.8606350722257 9.147101419977842 101.02262977976352 215.72021173126996 19.683407478965819 106.90484033385292 169.97891803178936 13.452774012461303 152.62986311176792 214.9391130907461 110.4448902301956 32.367182602640241 53.578758042771369 13.527716301847247 84.041224232409149 51.509081514785066 217.70885921083391 20.196133428253233
leaf_count=14995 970 840 1259 796 754 3848 1370 278 7890 4434 4834 2067 1863 99 1474 2329 208 1063 1730 222 1622 2154 1414 318 502 113 1028 578 2444 278
internal_value=0.000290993 0.0136946 -0.024988 -0.0330173 0.00740061 0.00455692 0.0012702 -0.0033825 -0.037145 0.000427451 0.0452777 -0.0259654 -0.00216008 0.0364325 0.00306905 0.0153955 0.0123718 -0.00293202 0.021129 0.00801626 0.0174075 0.0152097 0.0404515 0.00227278 -0.00350693 0.0181764 -0.0301192 0.0341244 -0.00896994 -0.0335628
internal_weight=4128.98 2698.28 1430.7 1095.67 2249.91 2049.19 335.035 1182.79 1022.42 1035.26 448.37 470.619 961.434 200.721 704.443 866.409 263.277 511.582 600.638 243.594 166.083 430.659 191.573 410.56 303.655 90.526 147.524 73.8269 250.076 343.053
internal_count=63774 33067 30707 26026 27280 25013 4681 14952 25230 12954 5787 10235 12098 2267 7664 10061 3311 5801 6213 3103 1844 4483 2168 4327 3264 953 1998 856 2762 8168
is_linear=0
shrinkage=0.05


Tree=24
num_leaves=31
num_cat=0
split_feature=3 10 2 3 10 2 7 9 4 5 1 4 1 0 2 10 2 7 0 1 7 8 8 8 7 8 1 1 0 4
split_gain=506.042 164.731 111.042 90.6635 53.5891 52.0118 42.1684 35.9508 36.1346 35.479 29.2343 29.1115 24.5678 23.488 22.5161 22.0516 21.2492 18.1669 17.973 19.0569 17.4306 16.739 16.5888 24.7606 15.9765 15.7989 15.7701 15.6344 15.6277 15.6184
threshold=0.85000000000000009 1.0000000180025095e-35 0.064285714285714265 0.23999999999999999 1.0000000180025095e-35 0.19642857142857142 0.90000000000000013 0.92500000000000016 0.6795634920634922 0.65000000000000013 0.0022778433435907005 0.81180555555555567 0.0016561683173296003 0.76515600000000006 0.45714285714285713 1.0000000180025095e-35 0.19642857142857142 0.65000000000000013 0.72367306500000017 0.0016936951998414503 0.90000000000000013 0.51738888888888912 0.38133333333333341 0.62538888888888911 0.30000000000000004 0.35777777777777781 0.0044336956776153012 0.0019983135872087003 0.72367306500000017 0.96412037037037035
decision_type=2 2 2 2 2 2 2 2 2 2 2 2 2 2 2 2 2 2 2 2 2 2 2 2 2 2 2 2 2 2
left_child=2 5 3 4 9 6 7 28 -9 17 11 -5 -13 -6 15 16 -4 -1 -10 -20 -11 -8 25 -24 29 -21 -25 -3 -2 -12
right_child=1 27 14 10 13 -7 21 8 18 20 24 12 -14 -15 -16 -17 -18 -19 19 22 -22 -23 23 26 -26 -27 -28 -29 -30 -31
leaf_value=-0.052895454045919756 -0.013642895114228155 -0.028974913122829821 -0.033287469237603944 -0.034134006896403751 0.0020500264660677212 0.054556697958728952 0.039000812225922166 -0.018802191661609884 -0.02107684653718906 -0.026999613183771039 -0.023638542399487789 0.0072011269019962567 -0.027426498120942319 -0.044010285576375006 0.041489503767800119 0.028590283857996973 0.0054185636125582215 -0.034713597746971574 0.024084669740846231 0.0096715489808322092 0.011363339673804231 0.0062931060288910455 -0.0075177297401184786 -0.013213183056859257 0.0044789126158663976 0.05044579444348557 0.037896053396414907 0.052464197918097567 0.023660079676904942 0.014663889265722138
leaf_weight=300.78570285765454 30.777625481132418 6.0006061401218167 46.387578445486724 189.88328810408711 136.76354373153299 69.562036685179919 159.3074694396928 176.03683263622224 54.760625069960952 142.9370187446475 118.69042987003922 123.58764874003828 87.479787409305573 34.700513112358749 50.0575184780173 72.281621525529772 150.50701014604419 252.90255334880203 154.96126456465572 97.952917617745697 37.345269042998552 51.848663532873616 306.37633516383357 20.615108067169785 331.9824334771838 31.36414886044804 56.345507070655003 329.41693336772732 319.95175484102219 34.307961820159107
leaf_count=9593 324 54 941 4302 2047 1034 1720 2552 662 3158 1887 1724 1600 821 508 863 1837 6487 1595 979 487 540 3452 193 5023 353 577 4780 3179 502
internal_value=0.000298815 0.0192736 -0.0164705 -0.0213119 -0.0324386 0.0123161 0.010304 0.00681067 0.00151078 -0.0383179 -0.00994031 -0.0199296 -0.00715077 -0.00727156 0.0106969 0.00497057 -0.00370042 -0.0445907 0.00646088 0.00871964 -0.0190528 0.0309695 0.00407521 -0.00114879 -0.00168184 0.0195608 0.0242056 0.0510073 0.0203866 -0.0150497
internal_weight=3975.88 1865.28 2110.6 1791.37 905.435 1529.86 1460.3 1249.14 898.413 733.971 885.932 400.951 211.067 171.464 319.234 269.176 196.895 553.688 722.376 667.615 180.282 211.156 512.654 383.337 484.981 129.317 76.9606 335.418 350.729 152.998
internal_count=63774 21994 41780 37631 22593 17160 16126 13866 10363 19725 15038 7626 3324 2868 4149 3641 2778 16080 7811 7149 3645 2260 5554 4222 7412 1332 770 4834 3503 2389
is_linear=0
shrinkage=0.05


Tree=25
num_leaves=31
num_cat=0
split_feature=3 10 1 5 3 2 9 4 2 10 0 3 8 2 10 0 3 1 6 11 1 1 2 2 4 0 4 0 0 4
split_gain=481.579 156.618 100.669 59.3546 49.4233 45.5398 36.8388 34.9812 32.9301 42.4892 31.1173 29.9673 26.0757 19.7576 21.3045 32.718 19.6575 17.6985 16.8244 14.9378 13.7305 19.252 14.9217 13.6368 13.1774 13.1506 12.9395 12.7407 13.6301 12.3504
threshold=0.85000000000000009 1.0000000180025095e-35 0.0024671126128095505 0.65000000000000013 0.23999999999999999 0.19642857142857142 0.92500000000000016 0.74189814814814825 0.37142857142857144 1.0000000180025095e-35 0.76492411000000005 0.48999999999999999 0.29033333333333339 0.37142857142857144 1.0000000180025095e-35 0.76515600000000006 0.48999999999999999 0.0021094428261251505 0.6000000000000002 0.50625000000000009 0.0012038309609403001 0.0014119345810329001 0.064285714285714265 1.0000000180025095e-35 0.91388888888888886 0.75758917000000003 0.90856481481481477 0.72578390000000015 0.77347530000000009 0.82523148148148151
decision_type=2 2 2 2 2 2 2 2 2 2 2 2 2 2 2 2 2 2 2 2 2 2 2 2 2 2 2 2 2 2
left_child=2 5 3 11 8 6 24 27 9 -4 -11 -1 -9 14 16 18 -6 -3 -16 20 -14 -22 -23 25 -2 -20 -15 -8 -29 -13
right_child=1 17 4 -5 13 -7 7 12 -10 10 -12 29 19 26 15 -17 -18 -19 23 -21 21 22 -24 -25 -26 -27 -28 28 -30 -31
leaf_value=-0.044223848593595454 0.01780646616491147 -0.022270635784374462 -0.033104685180614435 -0.009018794344679856 -0.027563523201682774 0.053752597168650676 -0.03616917031337593 0.050673819582856952 0.019329119839082941 0.008309141380147737 -0.041939212405426918 -0.036292776340311556 -0.042270484815437694 0.049898588753103573 0.05364157650422452 -0.022047846138865037 0.00020140212596551584 0.053397336172178171 -0.012203160696511306 -0.060157379712260921 0.035930815120904146 0.0064395196216343572 0.043585357923625237 0.044952780266228232 0.038102215694515933 0.029198477720345541 -0.009080998684163696 -0.00050176787363292118 -0.0342105460290534 -0.011716837276649111
leaf_weight=437.19764916785061 281.93689359910786 7.9303254112601271 298.24105513654649 275.0834941312205 83.567963993176818 63.753798463381827 33.871174820233136 41.624514652183279 55.116881055873819 143.4421138940379 39.238670309074223 84.326072061434388 12.015161674469708 35.400989292189479 39.663411725079641 47.150588377844542 268.80613060062751 302.47722656140104 46.597440958488733 7.5378180071711531 72.241733217379078 505.10878755466547 28.564564302098006 28.923574729822576 111.64670555223711 32.597681925399229 12.612470902968196 293.00220697885379 33.407505479641259 129.82517703762278
leaf_count=12870 2932 76 7852 5230 1838 1028 487 422 645 2050 969 1984 182 326 343 736 3861 4716 488 85 804 5532 320 283 1215 341 124 3903 381 2137
internal_value=0.000238206 0.0191644 -0.0162721 -0.0284932 -0.00626462 0.0124115 0.0105567 0.00557372 -0.0172778 -0.0214732 -0.00248389 -0.0367178 0.012354 0.00365188 0.000953965 0.0142172 -0.00638324 0.0514642 0.0257878 0.00980389 0.0106573 0.0117069 0.00842773 0.0155696 0.0235637 0.00483826 0.0344055 -0.00698067 -0.00395181 -0.0213941
internal_weight=3852.91 1795.12 2057.79 926.432 1131.36 1484.71 1420.96 1027.37 536.039 480.922 182.681 651.349 667.093 595.32 547.307 194.933 352.374 310.408 147.782 625.468 617.93 605.915 533.673 108.119 393.584 79.1951 48.0135 360.281 326.41 214.151
internal_count=64160 22083 42077 22221 19856 17291 16263 12116 11516 10871 3019 16991 7345 8340 7890 2191 5699 4792 1455 6923 6838 6656 5852 1112 4147 829 450 4771 4284 4121
is_linear=0
shrinkage=0.05


Tree=26
num_leaves=31
num_cat=0
split_feature=3 10 1 5 3 2 7 3 9 2 10 0 6 7 11 2 5 0 1 1 8 8 8 8 7 8 7 0 1 0
split_gain=442.258 144.228 90.8192 49.5539 43.8782 42.3768 36.8478 29.8378 28.777 28.2694 42.779 26.5518 26.5185 24.4438 22.7581 17.511 17.3429 17.0783 21.4079 16.4988 16.0272 16.3442 16.2961 16.0429 16.0224 13.5147 13.4565 12.8391 11.9427 11.9206
threshold=0.85000000000000009 1.0000000180025095e-35 0.0024671126128095505 0.65000000000000013 0.23999999999999999 0.10714285714285711 0.90000000000000013 0.48999999999999999 0.92500000000000016 0.23928571428571427 1.0000000180025095e-35 0.76492411000000005 0.90000000000000013 0.90000000000000013 0.49750000000000005 0.14999999999999999 0.65000000000000013 0.72367306500000017 0.0016745020594830004 0.0021094428261251505 0.75872222222222241 0.38133333333333341 0.46505555555555561 0.35777777777777781 0.90000000000000013 0.38005555555555554 0.30000000000000004 0.72578390000000015 0.0016936951998414503 0.76515600000000006
decision_type=2 2 2 2 2 2 2 2 2 2 2 2 2 2 2 2 2 2 2 2 2 2 2 2 2 2 2 2 2 2
left_child=2 5 3 7 9 6 8 -1 25 10 -4 -12 24 28 -7 26 -8 -10 -19 -3 21 23 -23 -20 -11 -2 29 -27 -5 -6
right_child=1 19 4 13 15 14 16 -9 17 12 11 -13 -14 -15 -16 -17 -18 18 20 -21 -22 22 -24 -25 -26 27 -28 -29 -30 -31
leaf_value=-0.043170918163117307 0.033934066341616199 -0.021276132892577071 -0.035297237899944781 -0.004550881263236624 -0.0039173196774044986 0.049331502759975596 0.021427663418582966 -0.019923543940953817 -0.022748064799653731 -0.029619176927829761 0.0068189810529877548 -0.040933526296365978 0.03903472198749721 0.019164996295245776 -0.040533776858957697 0.019916543553181204 0.056083581677934903 0.019490570669044339 0.0028562604079963075 0.052847468912249278 0.056513340805074391 -0.020204449124981427 0.00027286752069109694 0.040982135585166592 0.039309429397546988 -0.023065746917087408 0.004547774448247245 0.016171350435961018 -0.028590870249655526 -0.034776391426971108
leaf_weight=415.30191041948274 103.45734651084058 7.7118197157979003 252.83506882749498 94.958143891766667 95.514645325019956 97.477148765232414 144.94346668897197 206.73324015224352 67.082974237855524 40.573888191953301 138.9807772829663 36.822525209747255 39.999046594952233 57.62616334692575 7.5940472334623328 124.15329259261489 48.073076870292425 164.9496429245919 115.95257123652846 282.93826012336649 11.90282053966075 153.02266900707036 266.12872310215607 36.208121383562684 10.642087688669561 23.296033442951739 310.76920813717879 198.46786041464657 113.30863027833402 46.544851612299681
leaf_count=12870 1161 76 7296 1952 1426 1462 1632 4121 942 659 2029 958 442 765 94 1341 570 1914 1348 4716 154 1975 3291 459 132 238 4744 2051 2513 829
internal_value=0.000270264 0.0187553 -0.0158346 -0.027722 -0.00621136 0.0122646 0.00985565 -0.0354447 0.00643635 -0.0167471 -0.0221258 -0.00318292 0.00852843 -0.0096555 0.0428365 0.00328119 0.0300591 0.00141991 0.00358689 0.0508807 -0.000911115 -0.00210751 -0.00720294 0.0119287 -0.0152966 0.0190113 -0.00127977 0.0120495 -0.01763 -0.0140281
internal_weight=3713.97 1729.21 1984.76 887.928 1096.84 1438.56 1333.49 622.035 1140.47 519.853 428.638 175.803 91.215 265.893 105.071 576.982 193.017 815.248 748.165 290.65 583.215 571.312 419.151 152.161 51.216 325.221 452.829 221.764 208.267 142.059
internal_count=64160 22083 42077 22221 19856 17291 15735 16991 13533 11516 10283 2987 1233 5230 1556 8340 2202 10083 9141 4792 7227 7073 5266 1807 791 3450 6999 2289 4465 2255
is_linear=0
shrinkage=0.05


Tree=27
num_leaves=31
num_cat=0
split_feature=3 10 3 10 2 1 2 7 7 6 0 0 5 9 1 5 2 10 0 3 1 0 7 7 8 11 7 8 0 0
split_gain=392.356 132.754 82.5302 47.5376 53.8554 39.0971 37.9787 33.6995 30.5277 26.749 26.5198 22.7349 18.7734 17.8789 17.877 17.6932 17.2327 22.8867 27.6603 17.8604 16.6323 16.0224 15.3713 13.8375 12.7182 12.6913 12.6655 12.4105 12.2862 12.1274
threshold=0.85000000000000009 1.0000000180025095e-35 0.23999999999999999 1.0000000180025095e-35 0.19642857142857142 0.0021659354385545507 0.19642857142857142 0.65000000000000013 0.65000000000000013 0.90000000000000013 0.72537420000000008 0.76492411000000005 0.65000000000000013 0.92500000000000016 0.0014119345810329001 0.65000000000000013 0.37142857142857144 1.0000000180025095e-35 0.7654035400000001 0.48999999999999999 0.0021094428261251505 0.73038192500000021 0.30000000000000004 0.65000000000000013 0.68738888888888905 0.52650000000000008 0.90000000000000013 0.38005555555555554 0.70580928000000009 0.77813345000000012
decision_type=2 2 2 2 2 2 2 2 2 2 2 2 2 2 2 2 2 2 2 2 2 2 2 2 2 2 2 2 2 2
left_child=2 6 3 4 7 14 8 -1 10 26 -2 24 28 27 21 25 17 19 -19 -7 -3 23 -21 -4 -5 -10 -6 -12 -9 -15
right_child=1 20 5 11 9 16 -8 12 15 -11 13 -13 -14 29 -16 -17 -18 18 -20 22 -22 -23 -24 -25 -26 -27 -28 -29 -30 -31
leaf_value=-0.046753585046933444 -0.025868632430517253 -0.022018968709856715 -0.035230598755513647 -0.0010844859307805597 -0.031676913255878535 -0.026404959154638571 0.052292752101977868 0.028244565667836619 0.01465354024037737 0.035228500913623027 0.038147906103290663 -0.039184495052061757 -0.0051956282419874005 0.0035086995498146752 -0.025536310319567386 0.033972570538481302 0.032411233107052066 0.025139203458980408 -0.02049277695313631 -0.019046212376452768 0.052104776855475203 0.031673257692090201 0.0061949005946599564 0.0086128906427065249 0.038549329438250651 -0.076607118290337325 0.031206083371026202 0.011178167316452492 -0.034077094272145635 -0.034023808207414331
leaf_weight=347.66556527698413 68.199339348822832 7.790443521924316 35.361670083366334 133.09688744717278 40.561250425875187 87.520473129115999 55.749352457467467 8.1957743410021049 391.05278677470051 40.625071319635026 61.492539061000571 35.856434623710811 91.722908141091466 506.52525713841897 244.65198334120214 149.25621459831018 45.342038972768933 145.3215157892555 43.046167442575097 83.236390670295805 264.99409607145935 27.970712412148714 219.0431579737924 36.647041011601686 23.871444527991116 3.8470589704811564 9.9771517291665059 139.24690742930397 225.3923230371438 22.477489260025322
leaf_count=12177 963 76 764 2074 727 2090 1028 223 4607 464 699 970 1631 6441 5436 1748 452 1524 718 1432 4716 476 3356 572 313 39 135 1493 6543 273
internal_value=0.000352009 0.0180818 -0.0150341 -0.025447 -0.031045 -0.00474146 0.0118554 -0.0359305 0.0101757 0.00502014 0.00394839 -0.0032627 -0.0243637 0.006735 -0.0182565 0.0193074 0.00272868 0.000400869 0.0147113 -0.00651452 0.0499879 -0.000442614 -0.00075555 -0.0129175 0.00494295 0.0137645 -0.0192627 0.0194398 -0.0318904 0.00191393
internal_weight=3595.74 1670.63 1925.11 956.965 764.14 968.141 1397.85 672.977 1342.1 91.1635 797.942 192.825 325.311 729.742 344.631 544.156 623.51 578.168 188.368 389.8 272.785 99.9794 302.28 72.0087 156.968 394.9 50.5384 200.739 233.588 529.003
internal_count=64160 22083 42077 25257 21900 16820 17291 20574 16263 1326 9869 3357 8397 8906 7248 6394 9572 9120 2242 6878 4792 1812 4788 1336 2387 4646 862 2192 6766 6714
is_linear=0
shrinkage=0.05


Tree=28
num_leaves=31
num_cat=0
split_feature=3 10 1 5 4 1 4 3 10 3 0 8 7 1 1 11 7 4 8 1 9 1 8 8 7 4 1 8 0 7
split_gain=355.652 122.287 75.8448 43.3401 43.3314 32.1621 31.5691 29.6708 28.6415 31.3491 29.0707 23.5154 22.0496 21.7122 31.0165 22.6687 20.1665 19.9899 17.1447 16.4741 15.5769 15.0602 13.7967 15.3725 13.7827 13.7702 14.5052 14.4884 12.9192 14.2815
threshold=0.85000000000000009 1.0000000180025095e-35 0.0025278403526405504 0.65000000000000013 0.59821428571428592 0.0012038309609403001 0.69014550264550267 0.48999999999999999 1.0000000180025095e-35 0.48999999999999999 0.76515600000000006 0.29033333333333339 0.65000000000000013 0.0014119345810329001 0.0024866468794553006 0.52650000000000008 0.90000000000000013 0.8231481481481483 0.58850000000000013 0.0017037872019265003 0.92500000000000016 0.0021094428261251505 0.38505555555555554 0.3182222222222223 0.65000000000000013 0.81180555555555567 0.0016469501548526003 0.36327777777777787 0.77813345000000012 0.30000000000000004
decision_type=2 2 2 2 2 2 2 2 2 2 2 2 2 2 2 2 2 2 2 2 2 2 2 2 2 2 2 2 2 2
left_child=2 5 3 7 12 -2 20 -1 9 24 -10 -8 18 -13 17 22 -5 -15 -4 -19 -7 -3 23 -16 -6 -9 27 -27 -23 -30
right_child=1 21 4 16 8 6 11 25 10 -11 -12 13 -14 14 15 -17 -18 19 -20 -21 -22 28 -24 -25 -26 26 -28 -29 29 -31
